0:::1
-1.2807706350768555 -0.634963339110018 -0.04841241296140194 0.6737874480334203 -0.7310838764225966 -0.3618309683925558 -0.2012974972511084 -0.8875866513018612 1.2638768765679778 0.6444048619744118 0.1260830017067225 -1.17915095825245 -1.9563650162680608 -0.044243580611128985 1.2266537357093288 -0.5833518111912004 -1.4491178883109646 -0.6965502638685593 0.39363299786625344 -0.1818528872758127 -0.03334381113122089 0.5610736327997315 -0.8592812030260845 -0.5879180018264382 -0.323223041906953 -0.12129739034643057 0.3246685093444583 -0.3462590372165913 -0.8174209110742015 1.3077384991200844 -0.012529500039863849 -0.9683554606299972 0.15961592455554996 -1.7889907860809793 0.6764398411291197 2.391407279548785 -1.007803767521813 1.0000183681042027 1.1442370266129076 0.10063678323538501 -1.3962392390345568 0.9143373485589673 -0.6193074497769905 87.93670839625739 246.73230070128344 117.86439322944558 0.36691979660095136 0.9084922058458668 -1.5602719523446305 1.0598451875188755 0.5576185997582818 -0.9440501903270957 -0.6895611104715687 -0.11075540546084096 0.8060216291950657 -0.7452865700945766 -0.7014899790282034 -1.0238578090897335 1.5376119003395872 -0.9576636390615257 1.6135787707288158 -0.3185791607737857 -0.2495718358239352 -0.44972910090645124 -1.3989747499372804 -0.38322943942829396 0.14349841997385268 -0.7749486355626732 -40.53506806080998 -705.0549381469997 -166.25443898175865 -0.9809887527512041 -57.17312079015508 -236.04874796226943 -53.87937927393331 -0.6025598491335926 -0.007364903596141635 -0.567054543217177 -1.2950450104079674 0.2264689833467327 0.5657725285826952 -0.19322458212799012 -1.8725415195872357 1.3311519939917291 -0.141511568041989 1.5545028844176445 -0.3276890000191966 -1.4609963692953893 0.07579851347058533 -0.4179688273437671 -0.1088882209446654 -0.8685947080833727 -18.005985638647847 -15.733373490570292 -0.32119487398346175 0.4866383796236989 -391.31345475283274 -762.5823226729447 -576.9584196383366 -217.4881074291549 -665.0508569566573 -929.7636009054594 -365.48995713794204 -145.87186816126626 -221.61780752987474 -101.37937347300245 0.15917773974120278 0.2912904150611882 -1.9299800436326975 -1.813285516789728 0.5694760898273273 2.025015723828726 1.020603657476598 -1.8403733008259142 -0.10684539752893982 -1.0886434640939113 -0.11814153701325779 0.2620421887928245 0.23708052154987969 1.3664076461181738 -116.14815294367227 -147.9037793518017 -92.47944923648227 -93.37238902492896 -693.944422634736 -1308.0011710322913 -840.7431717396958 -707.3947556412372 -429.8122386065868 -738.8838513341311 -96.39869207594978 52.563533741482956 -163.2168707682058 -420.0370627325193 -625.9360606290718 -295.22221557018554 19.84587642888529 -0.9278356838966539 -2.438593661857987 0.15804719445452442 -0.6647838632384026 0.6511284982491737 0.5956555490358703 -0.11861779640853028 -1.0298288010424268 2.078502970100113 8.753697116660943 29.72446533924461 -55.82209125004985 -308.78363690031017 -172.04317292693872 213.96361804386328 -473.6561536375168 -1313.7578401548162 -762.0028815562019 149.1509316472716 80.6642593633602 -135.23974757171538 605.6058418583568 871.005053198089 -134.69122128790434 -317.7209272515918 -504.0106502271112 -350.12531888150204 66.43578855283864 -0.949910223758389 -0.9358651968867784 -1.1612733553277055 0.6318654998174908 -1.255396938806862 -1.0897561166886292 1.7163815323827079 0.8396053598401367 -0.628620860852059 -37.921367881017076 69.96192287981708 -39.163682320283954 -256.9105389384581 -71.02125323971148 751.1376155746432 209.90997827429112 -779.9256352828163 -535.1761388865511 49.896583525356164 297.42032887616955 701.205130622906 285.49741928098047 205.79361624808723 -898.1148112444862 -655.2809744176537 14.71355264999329 138.58758845011494 -14.54183145223709 -0.41966730300817867 -0.39257144924871445 -1.3876136921291657 1.9045369306796351 -0.6767988562065974 -1.0483712123848143 -0.30830059032628304 -371.91298926879057 -421.81478237849365 -201.8645317473823 -343.9642212049881 -366.6356274671318 310.066065523794 566.9284542772765 937.9912297625704 0.03339680898966435 -465.6225793989919 -89.98218592911519 474.9369244814926 327.1764335290766 1088.858077521394 432.32645561193135 240.32088834680042 -672.5887217076593 -330.51865643387464 365.0460358124807 347.3894078857504 82.10479453216098 -0.14981859530461336 -0.297027622555605 -0.7268177673469673 0.012073885082352066 -1.6032446749513745 1.7660427751284196 0.5385959672652394 -351.9342269648086 -510.4265924436523 -161.89703936197174 -185.27540654124806 -16.282777041781515 688.8058540840844 479.2496117209505 569.2803366566136 -648.0113885029289 -424.8835600894952 -496.40473306972285 -46.56670859750636 781.2047064974893 715.4777011381543 -228.36208649785817 -64.1425149387178 352.04891235728905 611.030145302047 619.9484215228756 460.51678128269464 -78.74608595731712 0.14521987012906423 -0.8221469839170239 1.0051293642014798 -1.1519536236552539 0.16144573569353465 1.4607591212574855 -3.0320083979037586 -433.2548553582357 -465.9081218677235 226.09958309508716 35.846668440270264 128.38476107050224 293.68085511764673 66.36877296238862 61.77965018014527 -1077.2302269800925 -1117.2520541369197 -132.80577246012967 -287.0473275648285 -298.62227559360247 65.95991586699006 -360.4670274167472 -695.5136650697284 613.3928921852121 646.032356994926 329.2136823422991 721.090030215938 -19.60262204888663 0.8259233697337949 0.5086598422000856 -0.2243995298305531 -0.39838537963082216 0.17065862815003335 0.09912973978754477 1.5836136607492266 -433.56980761022595 -142.6057635784569 510.6438759572976 497.9618671216032 631.431731816968 174.46576729741128 310.3044032736467 -286.92450738260504 -845.677103401093 -221.44808926676865 96.44498866008053 -1675.3358854815224 -837.8524323690838 -337.33078673305795 -433.0647577065421 118.00429609284129 853.914480791052 461.8708862942344 506.7808586399834 657.5782406051296 196.86844476606848 1.7389060846128073 1.3162673678385735 0.42312479633630234 0.27642519787164815 -1.2499788123896187 0.037223158858902025 -0.9705056896170261 -383.0565474931376 188.06825615448997 674.7278989811591 718.3039496137657 497.4718740230577 712.2550011434395 566.5822312202222 261.99759881994214 143.4397036156904 333.2781704662925 51.480080130528904 -2327.8592384533886 -1160.9465033945976 -323.86993800698485 122.44979062626089 1184.1332443156912 1.663932552042752 533.4274572354348 791.7986885682687 203.6877092920214 337.17668167406305 0.6350257155431209 -1.0652386755669598 0.8813043960483229 0.719475001234131 0.6287549033260337 -0.11317208050882002 1.0536370222677771 13.969562514327407 417.02034625449767 540.981035822359 137.01258523112483 1039.3842769896808 1366.4030770977438 335.32344609865504 594.1432491831756 1317.5033778905104 160.60464353873385 -363.23396492293216 -2811.7961764667234 -1349.239906148865 -153.98316474407807 747.976623293061 1134.3210260862843 388.4455892868673 1321.3466465739557 1129.1547405549536 443.5851000600854 350.05723908970725 -1.0117341718953328 0.9048273208299705 0.7863454168997639 -2.206455384323713 0.9285074475471784 -0.303373041832697 -1.01806183923965 305.18992600185726 623.1759073833327 295.1536627681829 471.09032712179425 1452.6343278038205 1201.3478040295652 1039.9267192840368 1281.8154898650691 678.4288478137374 -1125.1651474588593 -1303.6584699685613 -2913.624681286339 -2008.0396165517895 -140.25656077302926 2072.832054020701 981.8068337762213 172.17620641946712 1720.8030840008328 1807.157827787993 741.8027608071279 263.8171170204728 -0.8091125796734385 -0.8567095764607575 0.00082466353654477 0.9394130177613977 0.6904164443960293 0.35183028003292754 -0.8484294855390978 340.4250370092097 621.1758229043734 574.4202563434092 1113.942569276908 1253.3730389206696 435.21956535878746 1222.6074353961071 958.7864396058335 540.1138245284708 -1402.0431498694554 -2161.2639827841194 -2297.145336043278 -1908.364875858008 326.8761344482084 2392.1482934444775 550.8199724614462 483.5141028555636 1615.4247019317731 1196.6557829549733 696.5642297574847 79.29547045784483 -84.47073972190256 -52.287034646482645 -2.09048970564161 -0.8359898739543425 -0.02508478299960366 -1.4892468106004462 0.39038789564465715 510.550134040992 732.5426220608491 759.3820939538505 990.5963951178869 1162.2968656686407 976.9834425752799 1528.2333794656506 795.0170391308766 -602.7858946306371 -2396.8555786943716 -2935.82293191207 -1429.1176741864006 -493.7056801920073 1746.0538540748466 1848.4661579305584 577.283270506251 676.255706687692 1417.885106158942 1101.685352448929 879.8975869770843 60.60879456836726 -35.19768927367902 -19.659564819179906 0.7354335070802012 -2.8291850728940897 -0.22303678407055386 -0.5896405688564264 1.1062261352164842 537.678988302529 806.7014621460717 828.1005800368667 969.311186788241 1181.8680786993039 1694.2872489812441 1018.3159670850616 523.1882105595655 -1088.3270049163916 -2227.510710239774 -1905.0652225772944 -1382.4212912381731 781.4727936306545 2174.8187881048716 497.5241928534881 662.9674831875702 1422.6978727173403 1168.3030408669042 958.8444796897911 504.10216518373204 -379.4596898300051 -122.41571587870993 0.5513984597951344 0.3108585060760622 1.07231526719031 -0.7843165178227084 -0.3195790884731449 -0.8038025733476787 551.9268839149263 859.3743291918614 650.5863010807572 757.9369226123529 824.1078804866697 1515.9104144551059 1219.9030937833195 92.64772461934922 -1136.0476351176126 -1639.3235778272913 -549.5764866340623 -832.4056619005937 666.7188781103455 1090.358983773986 200.4298187945417 574.0465480153993 1004.0520847117482 321.0618829709971 625.7744638725209 386.8982621928193 -489.14904730418084 -504.4856028632403 0.473086942325752 1.562600180664402 0.7943405422544586 -0.7219131246553674 0.6875421744359681 0.27143813824792606 368.34909794790303 1001.4236638889982 798.2527766795347 294.0665204719933 932.1885760085795 792.9407727698326 194.3099668117144 206.63408348917665 -657.7872665540053 -1041.5935944164285 0.19713760077422648 -474.99525400213224 143.5706190595074 460.8599015069608 56.686042182154324 1094.9652499720603 63.87379710364951 -142.99254839119055 46.81552704252448 -42.450641693626096 -726.9806366805811 -509.5028513778544 0.43834884507368077 1.0194066068260086 0.23796775718984053 -1.257029138250498 0.45884955889620394 -0.6226548564796127 265.41815044138616 821.4245443586055 520.2460162609119 127.47234096716306 776.2516346794241 -80.49623179625291 -462.15601437927285 -130.6533295782133 363.342323780337 -366.10446874081094 190.23209665334412 -454.28347237598484 -692.5495315253471 -432.32727459253033 -186.60924047022058 375.5138977533387 173.5299212067216 -124.52491184689381 72.39863584714539 -578.5209263759797 -813.8368712028762 -507.62409312300736 2.7804569663509615 1.7221718980968193 -1.0922074431354114 0.5207947084357573 0.14003732917267808 -57.1083198415469 27.668272893057576 -131.9775797053358 -334.68976712696957 630.9013298256691 644.5423227782882 -472.83747953520947 -111.43849815282897 202.08116909099851 389.44851120456667 615.939074577821 -335.1847538950483 -964.2672224179817 -1112.5442779624987 -1374.4701207469861 -1158.4154223325825 -117.76707473990666 -349.7494225073099 -284.8722885814017 -568.4453722485816 -821.6587346136164 -693.8700237394938 -335.75138194976944 -1.3817055223417471 -0.03865269291661099 -1.3527404213805672 -0.42574325190123674 -0.36026731572992526 -251.0078638231495 -330.63703965156276 -511.036256992791 -986.4231221252958 -749.5779247240466 -282.2917853457793 -426.7620483023188 1031.7646934620143 983.2959667169994 1200.9492975660733 625.882029849183 -250.99058297837917 -302.2820642163681 -1105.4123950378946 -1207.2764810525 -497.29553739579114 -46.52522564888454 -1264.495997864912 -1210.768666629252 -625.6033909060609 -341.53311577626977 -440.72158408563087 -72.79442196523192 1.6577011029067101 0.21092011278909828 -0.20022866281934257 0.5725824675621128 0.8775074253706605 -112.89299627963705 -562.340406385106 -666.5830028811265 -539.9609283656655 -440.45759432120394 -607.5390702604172 -617.2408659536034 1140.5919803340485 1236.2837138892148 1602.2966718825169 359.5699480179642 19.725538241263052 537.6017150226442 -12.26237124831664 -316.6020767955338 -285.3175710264318 -20.309673988272323 -1018.521587121259 -685.6360640381611 -78.73964861247003 -21.12894032841367 -41.97768897515782 1.211799131756829 -0.4866355061767636 -1.8665608622121956 -1.3075416857759523 0.34989899281110365 -1.6946460486965818 -2.191662786114981 -269.98659226275817 -436.34521894565466 -76.70703547801122 629.8382817559645 518.6341411082883 -262.5928598572933 1061.940427366496 1174.2551930770205 82.34475465181231 -285.62937442426346 705.6744045255009 608.566582081533 121.60094028974345 -436.68909908259525 -260.0235895953342 -129.38213173514004 -707.403164010503 -90.89246875175158 -1.6994185470926932 0.554517802312468 0.9135872060419493 -0.09526910982671026 -0.07091242330667823 0.10335390678180718 0.5184966071278823 1.6198965942472252 -1.0805622247126851 -1.3006630199848808 -0.5835428254780878 -47.24198608423764 -17.35322312363533 -79.2368985449132 21.807944811721143 -336.79091309138744 -353.12091659300245 112.26870101241593 182.6073915910165 -111.99043036996329 788.6471123303626 651.9639348872967 -101.24063325466614 -393.461884126079 -45.90009401851711 0.5579575384804588 1.6231903296118433 -1.2631477831834794 0.20265693300835463 -0.16005517607592729 0.9256932627639474 -0.7022771605177114 1.1385103180323075 -1.5011531897826333 -1.19915498000901 0.6145977008662485 -1.1271191918113934 -0.43722503656530354 1.115615135795129 -0.2367961000160169 -1.5036373571256902 -0.13065870554648942 1.2626494467024307 -0.5375525272949025 0.18932563736456184 -72.18495377024041 -788.4186182783776 -628.6315165339159 -192.06035247797718 -31.239304123845933 -2.1808269703722285 -0.8310320621534699 0.6856028039226824 2.1167415054577345 -1.1990536279020871 1.0425227533147363 -0.5792921320989953 0.39705789974099603 1.3807787281521244 0.8618782575853544 0.33243309981088304 -0.31362998578328205 -0.3441901996863847 -0.06689998575290619 0.39921881660035075 -2.569371100502661 -1.6834625143390656 0.7887030166068378 0.7902981871741218 1.1631968774725008 0.1304991144819241 -0.8106000452448834 0.23985116017348437 1.03288698411549 -0.16137086951240498 0.5137776300792131 0.2663476770837034 1.755442124436563 0.6609473069259381 1.2640572906613965 0.8369401657789408 -0.8658844922006299 -0.6633526421520403 -1.5755639156092573 1.9277767443572305 -1.071555319479015 1.7822197995883664 0.7583781200404194 -0.9538127279741837 0.3367662669110163 -1.261669407659683 0.5387654749475447 -0.39375762094137423 1.0255213167045012 -0.4768761732226798 -0.6789755071564524 0.1334118722365064 0.7220557342461608 0.5747602828429799 -0.8727104820643734 1.2544664641408072 0.8441525634233028 0.09419841597051345 -0.028511310069968685 0.3840312150041392 2.0499755659598518 0.09739585095489632 -0.18096027839631454 2.286403852396387 0.20345700956769266 0.4822087495329839 -1.655465679968918 1.667048006629217 -0.7073654254194736 -0.8986784308706219 -0.5829173959625502 -0.8530950996440001 -0.990256851751272 
0:::2
-0.2534928198912332 -0.12907490367068572 -0.6851993871835459 -0.7724770693491317 1.1619963149120245 0.490319710977389 1.293140241009495 1.732110384712157 1.0996708633560688 -1.0878140898622735 -2.2702721140453597 -0.28907887421488854 -0.011337593125427483 0.701937653799866 -1.075803272588459 -0.25873404516412785 -0.8045255301924499 0.08193521273002426 0.17055764239628324 0.4765954767700049 -1.357437205701278 0.9693590050009838 -1.8095416628911742 1.8167778497718179 -1.438804409085935 0.3193275570590956 -0.23786709498642983 0.29049328108382894 1.0843499377419008 -2.267136330848893 -0.4826644186489727 -0.31461254052608584 0.5859890023264364 0.6033075440647896 0.7173965070883592 0.6370916950672033 -0.3272396896196268 -0.2971860018871729 1.1481448375552967 -1.294289840783407 -0.29558690302253804 1.0225096767851705 -268.5446093284772 -329.91529613037005 200.84816573104655 232.96408554954215 -0.1015440127207027 -0.3293645381117114 -2.5998678484992324 0.016273150462122424 -0.21213567605195888 -0.4513662036488473 1.9644241785574168 -1.3665336357318638 2.2203646589035233 0.9145405858306074 -0.6711027824665294 0.7724946691615504 0.06756263692453462 -1.2379253850480114 -0.5450966087118488 -0.6176676136051694 0.8315723032136906 0.18270523094219096 -80.67828630808283 -410.3657257823904 -343.9037260466274 -259.63058559392977 -407.42624437366845 -426.7550844537642 -714.157898735817 -750.5584279889708 -399.79754077106924 -413.8513861467742 -155.39340512744553 -2.562101986075575 1.0850286185327063 0.20462124336665882 0.4382860081948834 0.2867415263006554 -2.3347763869355496 0.971034009661178 1.1492306210727115 -0.1347207649681882 1.2372008375859116 1.5957935282401974 -0.4892563028461878 -0.2528296873969319 0.31223078877781746 0.4156918350844143 1.762569140088512 -11.91280923151785 -344.8722950141928 -2209.7436154889697 -2968.812741605754 -2500.2735576170307 -2462.968019185148 -2055.38130663327 -2150.9130291747583 -3099.18808801395 -2951.0319803055318 -1709.9993225381786 -851.815225166954 -458.16361224640343 506.6493434738036 -184.2525304751826 160.0237585293479 50.57539168143422 -0.5314200000865967 0.04538566254998276 -1.1968278898344744 1.2078940861154113 -1.423381231366643 0.36389636632065747 0.4670968696117442 -1.9320384726501285 0.23883503159577255 -83.42841263646056 -321.79242971472894 -753.7934705453084 -776.5848406542564 -1922.8464276731265 -1414.4391414583033 -1541.0595202965565 -2563.9433601149667 -2199.072520440176 -2863.8038378100814 -1641.2101143760437 -1761.1299666982359 -132.43976302135388 1516.3933276955895 921.7898261320686 1509.8931634859168 1345.8198111553843 1056.0867845478679 195.3005982313796 -0.012200348159498331 0.9369062041637322 0.8772523933889201 -0.7135220762085216 -0.0343777581300577 -0.8516587110716655 -1.1510620347779688 0.27071268822746014 0.39254841996240847 -189.5247522552275 0.2748611722426517 -706.3881110336788 -1079.901627850302 -517.6183797988206 153.10086646931745 887.402797913353 -2619.5288672556426 -91.47124190548766 59.441279242353176 755.173925801601 -1934.891867894426 -819.5903085239033 2415.5222787935163 2317.8537004487926 765.2543047066437 -616.9630701585097 596.7993022567805 532.0268324264296 54.60024493303729 -0.4666012783461893 -0.1655447883754457 0.028205933291139854 -1.9760130204839728 1.2196477205792366 -16.90693795309057 -95.16475885521612 -122.13072375526356 312.027293236818 97.95329939966223 -1355.8323158543055 -597.7180328748225 -2857.48939067245 -759.8982705400501 -1067.4560651610764 -2308.6298462783147 762.5423676754642 -513.9423636776214 -580.1544884342529 1391.8452752670316 -179.27815924903643 638.3263038958144 1390.9766548173661 900.6989488554136 -123.81420552882992 1855.5102423569074 2056.714529268257 351.44442265179833 -348.340542453507 1.4704817373588124 -1.532814062753768 0.7906057505013028 -0.10389211150454188 -331.27537523654706 -547.1159554027518 -730.3132765938661 -535.7720855054804 -1332.2751215972876 -813.9518191451393 -1654.4799918113536 -840.7384358858442 1134.383799208902 -1633.2103481824379 -2289.763716236105 268.15407990249923 1166.0319811372683 496.6473519645085 866.3118775140688 3084.111991589013 102.11016426955166 638.765608481049 989.7412665552802 -44.55846919178907 1558.4752510973874 2801.314914371304 601.7660744011985 -477.58221323207607 -1.641069016882398 0.10002074579330095 158.97957232378673 0.06329027671609196 -181.75865365758938 -650.7374034962306 -1075.905231980312 -1124.5323121512047 -1086.0565412563928 -439.56460190180337 -245.34174608879493 1511.7414181403415 314.2567417805601 -1769.6946017033556 971.7906867270424 -115.50363970391436 -1059.0815893195095 -306.3562590144925 3016.6687764036283 2450.868372580777 1856.858976079293 -546.2027347140993 356.5740262286495 124.05365787438177 421.6896282818111 415.7606710531736 1478.6352534262828 238.77857655020546 -0.4662988861745191 -1.3270409048794138 1.5499353847675146 -0.9332816382318295 2.02644629776331 -347.17697321874743 -776.1983413973595 -615.548466198486 -909.1176048306793 -213.8392331811699 1522.9124289809306 2518.43730740346 -996.9732796364669 754.8732334803094 2087.6925034539718 -626.0085845809328 -744.1141015642361 -219.92534462200547 2356.054952504921 1102.9323111298488 -927.3751272558047 971.1842446779174 1278.063657246577 290.49343753625 -2204.6552883463823 -228.6102969224538 1519.2637720779921 503.3948815620935 0.7060185143928908 -0.8180632791742559 -0.1946900899464039 -0.7734970428887917 -1.5298030502474518 -145.34576062237176 -1051.635493408533 -1118.926790503685 -838.7793775321818 -291.27766924453545 95.34891048373015 887.8790305498435 -494.9481185837608 -758.4635892084266 1276.8771164361801 2577.9998069420053 3174.6986794746836 1267.8457921740317 1814.032011587241 1158.750035523838 0.024531563989285132 1665.2309893853899 2349.11542831083 453.3866138571193 906.6523257848207 1011.0923273151577 1480.2691777906052 223.8980955985009 -0.36322380912905394 -1.3477517687899243 -0.7300755259678886 31.53405291733067 0.21771558735772753 -267.1716680339278 -495.14373364213293 -2013.7073921979763 -579.8478921943511 -1001.6835749340707 2611.7054271627476 2753.095531559209 1376.3912331929432 2159.016396042025 3309.2886004489155 2655.475331882377 -57.53399418211802 -878.8930919128006 2532.4519395117986 4601.574564872037 1690.2279282733252 2282.7871285439815 1484.9872557192966 3655.1245639834124 2246.382787661076 1450.9480319516033 1121.732235871609 -610.9038502752658 1.3298378135669935 0.4935176391329494 -1.0490524557352807 -0.14768588758966952 0.27289482589810904 -237.59195551125583 943.4392112933867 3133.9725211647833 2886.2189771046433 767.9353510546464 3380.407666770346 2748.4298148742496 432.6815502809959 2918.4964087659637 3095.8663500076555 -943.0071658723098 -2228.800191208114 -1701.9097624571973 495.86576935359085 4343.26718223585 2258.1374274341906 1861.699424174586 1150.4290529813547 3006.7466307110544 2221.0604777031895 3495.6777381714396 799.540468057595 130.5132293239642 -0.8531664290602333 0.21954110005993663 -0.5300503799894464 -0.5194360942163175 49.03366851775513 -252.1995590095122 2529.598059753658 4792.0736540172165 4288.370288534801 2517.7952962718173 814.4732888527392 1573.1237562286765 -156.27673629208562 1904.6860250954119 -458.1038357876391 -1932.625617802235 -4074.235682578088 -3745.7701103630934 -2412.3260387794026 613.9848434481887 1875.1430726353099 1660.7821668094025 73.58541154309023 2228.7077510510035 2582.7311116181145 2358.3360605228836 94.43035891200884 -37.368339263967755 -84.02275739246055 -1.4769925749822892 -0.5208016827202611 -0.2102544808672526 0.04196496056885824 -78.14141498181294 2055.662342099302 3377.7124581565413 1249.6318556375254 587.7273152475623 2995.1060955826742 1405.4365021444205 2661.615228310675 1633.5593322272762 -468.30857763402946 -2395.4374632230088 -6195.655657332782 -4891.291137798317 -5491.786881493228 -428.39885934107224 2205.2852769150586 277.4598588701115 924.1092580747293 1996.4941453880201 2086.7388407447884 3478.373635526732 386.0943680059522 -631.683458260929 -298.33063369331603 1.2136300778044395 1.1422937063319585 1.9320728790544135 -1.283362201535723 -185.1817345484474 191.0567235760809 990.8993567420182 932.3623050363831 3294.4692014025904 2911.980022565212 -182.6663603906859 2194.9311994385216 139.22752341918635 -1087.5319986705213 -4539.919536382253 -5345.004355933577 -3906.6427061744907 -3166.7278401191325 -704.2914621602636 -984.9815175027229 -2202.951558630276 994.007273044761 -350.5984701523098 1622.282027829946 3199.9753722599 -2359.0049372433496 -2676.087536657974 -1289.3304259229699 -105.98270091423237 0.8265802449426252 -0.7962450414002703 -0.24386473984616416 -406.32108997690307 -921.1416728532108 1328.1720072869098 455.456599643162 2712.9304811123448 1093.4352189719252 756.3154872651892 1570.7242360857858 614.0960656012999 -3890.671759128803 -5168.011555871491 -4771.682225982267 -2674.4137299855383 -3674.7903059834653 -1051.3560938356095 -4397.833884652754 -215.91063570227857 -932.5147203227693 -3204.211473776191 9.762434808729495 1247.2626251405354 -1917.855440771108 -3485.721398156063 -1846.5346486555575 -283.24517469916736 1.993364347202746 0.4478165675745924 0.6219117930178182 -646.8683802044736 -1242.4914398467408 -367.4619193313399 -1863.559835164829 216.98456903967053 1805.1978431677899 1268.8957037845926 1029.0574374784062 -982.6544529385665 -1303.2276213753237 -4408.930537928363 -2887.6059321692537 -1625.7158083563336 -626.9329893501167 313.88423798219446 406.70564627783733 188.35412125033895 -639.6483824459697 -3143.5215367380606 231.30701354290022 1192.0132103275014 -2715.8744584420187 -3863.763355590919 -1064.0555573145896 -210.79295344582687 -1.0693891702612857 0.39418451924574216 -0.06841115135195505 -823.6508232495494 -1466.208648044374 -2627.0878565518433 -2620.4969444145727 -284.78238067413895 1241.4652770204239 218.33453714695088 510.6786603508385 446.95947447081494 700.4146330582207 -2366.9645563734925 -1465.0252756155132 -1242.3842179094813 -2409.484590347036 -1884.4592111832817 -462.1875324668649 271.41248200001064 -222.08074809098412 -382.78473091686783 -472.6717506625596 -1428.0470993739773 -3898.386595312594 -2845.639497938286 -1065.4760868659773 -582.2537408211463 -1.9982658547701038 0.36089761152096855 -50.58730378343034 -1038.131760728119 -1636.3158422851234 -575.6661684835813 -1857.0738890106818 -139.22763399638643 1442.8845770017874 -2031.0748628934052 -1630.095951259283 -19.24728697213959 2029.1159964353842 965.1427292881872 -1418.030932036137 -3379.101080199397 -5103.484854188423 -3026.1857287131734 -547.8638918383729 -190.86170441543163 -360.4106803774994 -1392.78123656359 -831.1435560855962 -1387.7141262633531 -1636.6001835215961 -1171.2065145581475 -420.24860227690436 -127.05955494376813 1.469281295638575 -2.2974656236670703 -389.42137409379495 -1317.958938467012 -637.5650437259719 -157.88905834773095 -1942.5463031071918 -246.77570911216344 429.1473124061433 -740.8697773205286 266.7866205723958 1568.4083529720328 1372.126434431243 1440.4809793184122 -934.2814802474832 -2510.4608719719167 -1494.343884007726 -0.34432987279933513 651.9880493135502 -1474.4888393096244 -1503.8594688206385 -2516.686335394873 -2480.1233181519196 -2697.504058959432 -1631.2130846681666 -549.697607687398 -6.168142601567404 0.025679303700393608 -0.3666051387132173 -0.6721380491484237 -764.9888469835073 -1110.8492315661013 -910.0457788452172 -1704.2552475664593 -2974.9234705159697 -322.95547173821956 -1691.8867245618762 -899.4831128833937 531.3974319343711 715.0377396610143 1206.6141852365986 850.798096316571 -1028.9202141425826 -301.6089590351328 -1706.8677508324672 -3957.99626952394 -1411.8635259430957 174.7808070475512 -1178.5971597627174 -774.2103000261293 -2697.859386054398 -2432.931581768715 -1425.425823315994 -244.24527137857075 -19.045260647413023 -0.5335021180847973 0.24810803441064425 0.5433665116445178 -99.3896125653341 -261.4283211083382 -1915.369376242089 -950.8659004461815 -1449.086073126489 -2323.6410087357112 -2457.8463745342215 -873.8802602553558 340.3858936251868 -488.89303781717854 1892.0328613079146 5120.227461493214 2134.158498591445 702.286542341757 -297.4745893568088 -1636.268476105091 -1262.687941452229 1401.8453881912108 -520.1512966463104 -2136.268755281919 -2607.9436619111157 -1681.0551410813616 -1141.2113520354958 -618.327624545175 -0.4737789907661051 -0.4331199578096663 0.5204165122245562 0.23944309605059058 1.7284327576299225 -254.27868498303366 -2562.2744724459326 -1660.175111153048 -433.86134771853904 158.16054359883242 -1006.0779209764005 -965.7073679750871 830.8482652537105 241.8261108038164 1819.1809445987988 3337.5850601158277 2387.378241095454 1026.1069994464028 -1186.4703117177642 -1396.0168199906157 -1974.545721059972 -1629.8609306418007 -1977.987647398474 -2493.602665533629 -2915.007339122443 -2608.181474346965 -1010.5884276777608 -737.0618588402599 -3.2023042656511413 -0.4903797140713942 0.18368698824592528 1.2010317427851556 -0.38962601071101716 -1.184284015657257 -690.8875930254945 -194.16427801649797 -852.9134974314097 -74.68134727917652 -1093.5588907376655 -2562.73266405475 -2010.6940308515595 -2022.1432555169708 -656.8804312165817 1501.2595787602424 698.4293433394832 11.08011982312496 -501.8695271057318 -208.27771631563473 -1001.228058642515 -1691.0921078933234 -1492.5139037184376 -1165.1176527317944 -1011.4579435970907 -1177.1074325086233 -816.3542990853422 -340.6843603756238 -2.011184304360137 1.3062123805052264 -1.2418508797209848 0.14852140291111882 0.7231478261241041 -0.43087860640688086 -0.631471144404481 -1.01013785213499 35.15025942618895 230.7730263455622 215.66474510512955 96.08943417639088 187.69031760668048 252.20943504456275 167.2284622135158 -128.32010969879985 -383.3776152047126 -112.13083098886017 -29.390492127088805 -281.7669387647426 -756.1781308182441 -695.6869266579346 -221.34591599564897 -0.10063243542453164 1.0757601298511317 2.4478954817711767 1.885557232180194 -0.33717799499527223 -0.5579920092064791 0.1860239384737879 -0.2914693461246692 -0.8755854944314173 -1.5122058020981137 0.28244014877016704 0.5894154443372479 -0.8257498697572303 1.8115846087866736 -1.4101387817100148 -1.0690586852690378 3.3386383631698964 0.0859107142965279 1.1387556855377974 -0.18013475583255587 -0.5023805076126291 0.9220613464155822 1.7674148693847431 -1.5326242578600593 -0.49169966347779837 0.45167210391093277 -1.6063187269663626 -2.36297716560468 -0.04866007206289047 -0.2956237379523534 0.1904155104701612 2.0241653478400488 -0.7885853045861265 2.437123838151293 -1.639170432683405 -0.9618772711131401 -0.2917453783589289 -1.4237534791872093 -0.8613490999256603 0.6966702817891782 -0.8014404473087993 0.8415495832145686 -0.18021155503360944 0.44374039616242733 -2.703214810188815 -0.40456829286885393 0.43945209648134276 -0.5289832558474727 0.5102569136152376 -0.2914216289101188 0.8751089242636059 -1.203782518656375 -1.3968850787239073 -1.6121278829259447 0.7292017418084616 -0.12348091852077596 -0.3965486567644584 0.36107526927526684 0.9277470797601904 -0.5106961893511232 1.5504205566991192 -0.39841628051516575 -0.5163185390157903 
0:::3
0.9907468138733199 -0.01093674505430552 -0.4239284332032727 -0.5608410571400423 0.1819649904395519 -0.7273780115927333 -1.9433255772640547 1.2499980299124576 1.2294284711788233 0.4948549647003902 0.8648081313128588 -1.1415368977983316 -0.20215204106491658 0.6479560106616867 -0.3098868562781449 0.7727552700270657 -2.3138549273987694 -0.28833259202595135 -1.3717278955480674 0.16176686413126284 0.3049968730762679 -0.14779375644539083 0.11183616118927275 1.2033830323542445 -1.148839075533288 -0.1174968536688645 0.7227972721769926 -0.6019413342382143 0.31208638811732026 1.0190598103770068 0.18497289319465546 -0.004601877344908416 -0.8184264896815154 -2.737471780866106 0.4252490782851823 -0.7216660951115881 0.3120438478957794 0.8426592163298497 1.5106685007689407 1.4833385610600152 -0.40142574341783455 0.02875284639719154 -0.16687682752982852 91.97210607980374 245.80910660464042 116.7651259122018 0.15685440068171913 -0.7774581278762857 2.157308729031251 1.6448408634414888 1.0474924479049377 -0.16197615282402955 -0.5384798920158348 0.0024350388357217297 -0.1516471644680827 -0.43075566918167196 0.8725482048283143 -1.4107217632544369 0.08875924630595963 0.21304907989647207 0.9038044620331566 1.00157964463916 0.14893203718625506 -0.48585507629529473 -1.2124571078084976 1.8494393926780461 0.34799468939978384 -54.101914807365176 -245.58266240230117 -130.8304190808866 -29.6699463119197 -159.92386695916468 -576.0986585163407 -570.409244433295 -133.1952535289672 -0.34952002272027827 0.690527735680477 -2.90937691014895 -1.1753283527188645 -0.12443977618077176 0.33716207918297997 -0.5341130186636901 0.561202713472713 0.18029538800551723 -1.3967627546733685 0.6897644596682739 1.1935615933326116 -0.07748841841243287 1.3409791885386833 -1021.82434823104 -1016.0937595701995 -1000.2264800609591 -574.7538385728556 -272.34359452590587 -368.59883888703405 82.60050693013449 -184.59764835089095 222.18960546365963 -427.59924492452967 -1573.0888915947658 -2206.2076027289595 -3311.9294767134506 -2939.91147544279 -2155.06227774606 -1873.5042415701719 -716.7890177284685 -67.7770461464304 1.145980795700393 0.643793011623598 0.19396992118010045 -0.7336811672522677 -2.049192593153476 -0.31728331332869425 -0.5619302239774037 -1.8718371347919203 -0.026059728411626425 0.20224615716178557 -1015.7225539547866 -998.2417572550637 -928.9709795947231 -1499.9562516950941 -1927.9877100154151 -2258.714758301985 -1686.6074934285707 -1185.2548653050876 -1877.82210443569 -1117.9390250051288 -2062.4738468712535 -2134.809838506718 -1177.0130459611123 -1006.8272152300904 -647.2131786268553 -766.9812933688604 -1094.2798641605464 -395.62658601229634 247.07042590957815 209.2113175873277 0.6019586500919588 0.7245704079987769 0.17827489669082802 1.6685808942634772 -0.7289106886339936 1.0429688069210434 -12.592204449537048 -100.1556342745534 -1064.952160826235 -1468.7423518829057 -1973.996023215842 -1463.1026623114085 -1829.911398955418 -1297.2294411707305 -1422.5891224964319 -3546.330638395561 -850.3645031124815 1180.9283965756613 -624.044122422928 -2859.525737679055 177.04997298825447 1479.958544588727 -1303.6296646315595 -644.8101212168522 -110.90859485031751 -273.8589423614553 -927.1960855891521 -134.06445354072318 -2.3656729335705924 0.3169201863813232 -0.3038296744879396 1.198121978107895 -0.5690666631588117 0.9110690248392207 -137.68427823947667 -332.2935783678731 -717.6320954705724 -1911.7148409819479 -550.6286377300335 -1613.6431163845696 -2177.2952424427476 -192.5213691315214 531.7179805054834 -1325.8567375887355 -200.39549520183368 2041.2397066444714 -679.6109204262539 -963.8115593819437 -2161.9241624760075 -387.07721736406756 299.56985700787834 -825.9352809838645 -1167.6649875803487 -185.06858839263873 -482.0361494188792 -479.3761698939934 -1.8613127489758126 0.6064623134126818 -1.8579163970495327 -1.2207688255468099 0.3855317832612456 -1.3281106549415118 -223.0111188526173 -570.4751023865481 -1091.013817004229 -1055.0835237082895 -1969.66313039719 -2995.9406813060327 -955.0959780313349 944.5779689302221 -1192.017530598911 -1837.8546897911529 1420.8001441888423 1560.8338719012522 -670.1975668330615 -224.2206669987222 830.2627424682346 75.51667032950468 769.8596226280224 889.7588063397127 452.92193389168665 621.9809431028848 862.3061784780604 -78.95511783633242 3.5246068999160602 -1.2609467113254502 -0.5280640510327923 -0.02864291192462656 0.16161434796393812 1.8661438851204721 -180.1560383540567 -852.6153103514009 -1584.4303256100793 -1249.8490157375172 -1799.4250936968274 -1221.5948452391017 811.0696571329054 1099.2138710672107 -1493.893359058025 -565.4756905559914 1087.865424885898 1374.4355191748612 -1343.2953114242532 73.04836286631553 443.28804732155004 423.0679688937033 -434.4926328674778 306.2448989900124 -916.8972286038445 -1242.7437801830015 616.5836011389142 276.9447697882705 140.00222997973427 -0.5542586374267509 0.06194874450801131 0.9878902559962908 -0.8589424716565454 27.04452549662505 -308.94934809852595 -553.6431590040899 -796.9152274913697 317.6757810550723 143.84578303868443 333.0297579919761 1488.4571749752363 2709.2261549198397 974.1033507591367 -524.3639584513799 156.8613674056537 -282.92006942628893 -1526.7522419981342 65.18583610907808 1048.8589704893238 -105.31657350167552 41.16634995580034 410.7755187380137 -1763.558341110666 -2259.6540817070772 -255.58003343330142 808.8662557303069 253.0955883393919 1.2987973859768775 0.019667045016073026 0.9586921564239254 -0.4368526510749219 140.0765663474843 -118.68558819951889 224.96118047362057 1407.147460101394 2248.0788430917773 989.5198517856938 1724.8698721461974 2089.1240965723746 3065.3865485889282 1534.4502093818267 2.6141796479405457 -66.9170716094618 -183.67588409198675 -1004.3507299678122 -452.22339760344653 1135.684918407498 930.3359266892157 1965.6086937200262 2213.390859652911 1398.874804895393 1290.174045954609 805.0157784348105 789.1954821616202 251.45120946957306 0.903835080161992 -0.031200678732015923 -0.48226448898528873 0.48311580050412606 -1.1844776922860503 -481.1191165653278 427.3296830163092 1370.6750978992495 1835.341131336752 1347.262400962767 971.6991502710439 1767.0998591283064 2262.882980492389 2618.54645733624 150.59710942233914 -1412.3651930137537 -2695.8047698764094 -4298.587385455787 -4360.754161747919 -830.7454331707686 155.76649908652803 998.0228159911896 1482.2053219196596 2756.384684191255 3570.9906207889144 2916.818307418402 1133.0206878064873 253.2763260501326 0.7947221219450485 0.09086799269816895 -0.1356890982302981 -1.1086041058551803 0.2052703200796763 -450.9670397369928 1588.6994754480882 1762.5098530581631 2989.461407519684 837.9620802634297 1644.8745264796053 2788.7398781700717 603.6556887807155 999.9877015431616 -741.407151496827 -2561.155495680525 -5260.500031089834 -5631.09371974272 -2649.9231478698093 -976.7299876504994 -2974.821065384922 -1704.0836028467415 -1339.523043297309 2238.563120884118 3670.819647067172 3130.402765285325 1103.8287554757076 251.26546186707307 1.0699684058306664 1.1629720439824656 -1.0311315854250138 1.2943336170634916 -0.737873939025616 209.9489487972641 2106.265024968344 1828.640986499035 2737.8831789203105 2234.501470746577 2478.186697908391 2420.555240618095 1813.5874037242888 3328.8390534213054 891.2113936581422 -2707.821334257753 -4088.3256129036617 -3671.9143559293234 -3244.2029639750417 -1350.126085565627 -1140.2434201622427 864.3944987765135 -857.5321161090819 2820.588726815428 3041.0197168027016 2300.630051320898 935.2590276314617 251.13486955845332 0.11529261573105787 0.26188581070582867 0.41202678132482495 -0.23073422976102195 0.04275872100265372 196.04802600563517 1054.7817543973827 2171.1747931304917 1975.4357254858783 1806.2550939160556 1356.862708707953 827.4277142774381 2713.1991313633753 3293.5234194241325 1774.4058500930496 -2483.317636736635 -5353.141576689863 -3545.5948399609497 -4531.180082636404 -1806.5861916612848 -1125.8217567345866 18.831191765699486 -198.9495905948438 -231.6154330126758 1773.316730824759 2143.1814082273822 223.6150386827037 253.39290545304692 0.5707882509085759 1.9293016220442327 1.4993609897972628 -0.34137858577239216 -0.7388603397424146 121.05914319795943 801.7341166626532 1499.0807456853308 310.497767138487 1524.897591603497 377.4173274424875 2055.9705003695626 2421.8660693036622 2501.5969457641736 2480.911290763686 -3556.351801466648 -4903.347168377975 -927.7306969275751 -1273.8593798633383 567.5503186488252 368.6887336961902 13.088236181936509 585.6313968196141 -470.8049334982843 25.946132191465495 180.07550794263193 -1249.5307918249055 129.13573530089496 -2.290497716849312 -0.17041712879461213 -0.6321050128403046 0.5633386678513125 0.35583246472946084 -765.5306360364106 -68.91145406215526 1967.014996055038 988.4240298181178 1493.9429094057004 1484.7507870473564 1600.1031537822219 956.7772094422044 1849.4174879902093 -131.9637277187261 -5808.570885156214 -3998.700720304487 84.45078809936103 2483.5488242083384 3019.182136859898 154.5529415808801 1065.4609041606095 -30.02157562122079 495.97299651095227 380.43711989412395 -763.7762877746874 -2394.9987143100957 43.615254399805096 1.1396088551215193 11.828184141624265 0.09227295585159082 -0.5290024112878976 1.4159590153027783 -1419.5070055905771 -842.1991557274177 916.7757749739023 1245.7968647314328 994.5564226434506 2180.3880830808794 4790.745945874216 4093.862885412811 2853.941709188275 752.5565993897037 -3433.9917125884085 116.85108941130898 1980.257119528415 1309.0937526357775 163.98834171283943 -109.47444984216224 50.665609239065816 732.012105658818 59.58723263093134 150.86985115073105 -1234.5937138648535 -1569.0703739598373 3.773641817304521 0.9779613500600813 105.3034009132716 -0.2201005851055853 0.9792315195009476 -0.9210467380085228 -2230.192938405545 -1198.7877732794377 626.0268003688998 1501.2252360428329 1289.8323992604587 2039.8027576004133 3180.8395475138605 2456.2488709228846 2206.984730059681 100.7895751844843 -1869.9346386591537 -572.6390504674414 -616.7575604066787 -2085.8639255923435 -1702.6709955278793 -1319.191797068614 -237.9455274010852 -2046.979908828574 -1316.5421650245796 -1393.3283466829844 -770.958319720266 -698.6784493098505 -0.35294908819066184 -0.3515989245482723 0.3366691178237096 2.150849924463769 0.5387125439411574 0.8658465330900084 -1852.5396341056867 -1851.6296973151902 -1162.5924166847567 620.9119799858227 1852.2573698105393 2274.257565682329 -130.72282434204658 -358.416059424439 800.0792063409544 1863.075706229015 1242.1188941847354 -987.7636908697984 -1562.7854621585525 -2294.218541333421 -2391.401409001456 -1444.4656190729554 -801.7880729459343 -2989.296806613921 -1210.2998157760687 -892.3126691262471 -764.7173708502191 -860.0927612286368 0.3828359298918307 0.37491437006488554 -0.7744336625647267 -2.1969135066617773 -0.06149559057559891 1.0785879102378202 -942.1134685463223 -2671.658720861261 -2335.182370665638 -1469.3210428709522 1093.8964040323049 1165.152259957387 418.50568408438244 1726.0824984775231 1958.1791454354398 2406.0580817896994 904.7973782442484 -1844.9138755451463 -559.85918755167 -1562.8184853198456 -2542.555051594627 -1893.8943032430661 -1589.3873212452581 -1639.5236190049777 -947.4591508568578 -356.76144710921744 -1042.1153729614832 -239.41639608215755 -0.3205625911542155 -1.0129955011797362 1.4433850963609682 -0.03303446436130859 -0.3903165763624233 0.23036426029390783 1.6628246281079555 -1111.2716770941906 -1273.9527914614362 -1686.83218217747 844.1753009057584 162.79156670971497 484.29879472347716 1237.359562849952 2606.421335228734 1390.242658973973 2137.885594739908 661.3413482056485 -605.7486377099312 -1124.3230941802458 -3199.151953451492 -1749.9922092254 -1092.8027266756012 370.53790445919276 -803.3195496591845 -377.53874426479695 -332.01580675518835 0.6527891055311177 -0.1799381194397015 -0.9234189108856946 -1.2442828327031417 -1.248895345712364 -0.26131229366376557 -0.26598160005222893 -219.2414622509668 -1288.766325594319 -533.3893809728767 364.3898572412668 -507.62342156051454 291.7925632533736 617.9950143472429 -603.6018937562176 851.6197696169265 2779.666066207565 2691.6322659499 2290.163804294003 661.2337889114383 -780.3258431233317 -760.3946903912004 -272.3080709565538 -325.6322223186688 49.321276567678126 106.05696812229058 -342.3612991985865 -97.15262001166697 -0.7578810715171163 0.36464566805024573 1.5461064425928162 0.21822647335239959 -0.017655882930169512 -0.22375726283677747 -0.937878884951704 -348.210395954605 -1676.5199970835245 -1772.66362307697 -366.7976340014536 -338.0969505976476 -467.4089827662035 539.003545216862 -155.85021075373334 65.70729129030383 806.2988167017622 1353.2411607646654 2540.505851708549 2063.899549823419 -686.4025462714687 -573.384626853102 -361.0589610682447 -197.99487221260927 -647.3467611752079 -527.6583096219744 -250.9884113418497 1.3105101403617 -1.2721847617670412 1.3402456535723721 -0.015505708680914883 0.6236965579362324 -0.9293476788792305 0.7754163112504553 0.46454148393232564 -32.280562910610996 -488.5609436566534 -1353.3546101813586 -1877.5170832049507 -1498.292784212707 -1367.2808135614277 -1226.292947122514 -2069.4080338231074 -1857.6951986107988 -659.4957628765551 -520.7694488044876 1729.8968620556343 182.2774466707566 -954.1316800629102 -1157.4185062122106 -415.89496348405146 -352.7445090983487 -325.5875532661979 -217.90858924401385 -36.24152775554015 -2.0651457794590513 -0.4939005803974219 -0.3049347620380419 -0.4187997789972576 0.04552889204664913 1.2148033518188666 -0.23325123918416402 -0.7795675545126084 0.6536250887130782 -91.2961984370753 -699.1983385563735 -1065.8373567507608 -1845.8898265942917 -2354.0392104479615 -3013.3325987915905 -3206.839644237343 -2964.8602451999272 -2636.4422429304354 -1320.5767437273682 -1055.8405629277922 -1141.067496232143 -1080.795158444941 -789.1973350065025 -180.49333557832762 -1.4015701662187088 -0.27390211425320804 -2.2392006265936875 1.1907576322239841 0.06800504662368352 -0.12131089299001105 0.3105739503533681 -1.258685064748822 0.8274123600043573 -1.4349761960962306 0.246060126181955 -0.5972859058341258 -0.8587379944011615 0.9397850934141024 -256.03808254346893 -511.7812124215474 -511.02182629763087 -510.75705797250333 -510.75923362012884 -622.7417867536652 -746.5129663973863 -764.5266583642835 -754.5252255214068 -662.5421786746729 -233.19897896227525 -242.44902199115347 -507.2784829456623 -180.91216515847378 1.0618842507823414 0.4378112299910611 0.6320154247550737 -1.3426755999021973 0.3193886474401295 -0.0838332492304496 -0.4041035873682264 0.39020364907846755 0.2409467272735677 0.5412641728227426 1.313135425337497 1.2256488415262594 -1.2526818329855882 0.5933027652006703 -0.38283653416414054 0.43695396534291153 1.1227549269536279 -0.29835629126331503 -0.7364152760571439 0.2189205112733735 -0.9481121483104069 0.3167081364898082 -1.2137436861739985 -0.8234087101472759 1.1103387753815626 -1.1723227105944123 2.2175926835720716 -0.8752005573260775 -0.06666354955641551 -1.3089483783482148 0.2094961228883291 1.0856367203219182 0.4215576383084667 -2.176746411197286 -1.3505227786601832 -0.5184390820243344 -0.46199999018176885 
0:::4
1.1229176770491134 1.227278654864176 2.7560973966389914 0.3274970755379913 0.393471407759522 -0.5263040330899459 1.1427828748877 0.1685406455338306 0.37955347070173684 -0.3239252267367496 -1.805793763866028 0.6136201131419733 -0.3922731300815868 0.15258050263610642 0.15885912595258883 -0.3712812285005209 -0.9284664419289806 1.2982513099827881 0.33715832964085385 -0.6900122396435387 0.5152661502618076 -0.5154306546757043 -0.857789910568854 0.47798619388892505 -1.5119565767195686 -0.34157958548100853 0.5615168088763763 0.831374965950204 -0.9191667975224223 -0.3103504876287696 0.14654865013094487 1.353373638879892 -0.45830899595364893 0.3261469956017706 -0.08578437111421076 -0.29774522049103247 0.2533782551832542 1.0875157441623902 -0.687474026617549 129.29753876791423 253.60588655981832 105.79010344377258 1.305344624594673 269.82893199273093 738.4110559668333 351.17444433941307 -0.08492888507879125 0.41238538961314414 -1.3493849566951648 0.24117714512135932 0.7564379141642504 0.0036306745803303554 1.2698186346501852 0.6560343025125113 -0.4121638317480545 1.578191805058277 -0.2687221010262783 0.9273971630445944 -0.9498537669811569 57.7649469580514 20.57344054331928 1.3084400201178776 -0.368656055442804 -0.4062841286612904 1.612252490368321 0.9060999246986189 -0.5469059146963764 93.473475584014 231.26484726104673 46.10415229279292 -340.37844124699063 -328.18221535967746 135.14852920041912 7.093214644267678 -0.44879938728794283 -2.6134531474509375 -0.9543080846631901 0.8914232188181633 -0.8386841415665178 -0.5766026120482187 -0.5621463157698253 -0.5327393832515496 0.42351307969751184 1.872919712263565 -1.8449365837108853 -0.9281056085748459 -0.9727723144939386 169.14151076655605 56.40036138944738 -1.348822901988302 -92.72600509190146 -761.7133202650247 -758.4905337034702 -287.8328706893009 -336.95730691959943 136.78668658427614 269.3671255915857 -288.0675479125467 -521.0233195014528 186.27935884995907 -68.31880120471317 933.5615395839068 1474.971184440851 -55.2946241070556 -1381.4940808955873 -847.7329462713137 -273.6549862199032 -67.32919828067574 -25.194599209664066 1.3197023626103201 -0.6024225852016988 1.4117754587512308 1.2316463066651526 2.2978193448969053 0.05912287077768695 0.4246253959971197 0.22058939827595042 -4.7409127455972335 -416.37346582958855 -600.7049571350988 -418.2718969606001 -621.8385635135219 -162.39467252224506 841.2581136560841 199.5686318715965 -1200.556205097042 -1387.6540194598315 638.2741977363171 632.2100721722836 284.7694282972848 598.5321593696287 -73.7098660489412 -721.9143313740008 -1357.679849566788 -1228.5397722769785 -1172.9528111056159 -861.44016969241 -436.8607474331832 1.0088305221240932 0.1494576270350482 0.29207021193669996 -0.60648729512705 0.022901014088492638 0.11472902359097076 0.369457610119318 167.61730350059955 -31.25735812653727 -260.9883953106478 -535.4334330478824 -402.5888313652165 301.116584766522 459.11474368637425 -103.80023958153174 -68.02644165103811 -8.612283418777338 1524.7297669363152 -200.773237478292 638.7525689033482 -140.54632107810664 -807.687719433985 -176.1537084124874 -465.7365188941948 -979.8032234950733 -1607.4757841030023 -1097.7285781277717 -80.23309162375234 1.56207357700131 -0.8343672179568188 -0.4372139342549282 0.48806989908082854 -2.0133669233044884 -0.7075057702991124 -61.591843629276944 629.3710720357192 184.66624415227355 -106.55312373627328 20.04300579862206 -557.9052170125077 559.31866363987 394.93508821207 -116.85583687664644 358.95168412061787 1107.9648890453268 648.1309566439957 416.86872868633645 -73.86307111085375 -921.1687793853769 -973.0966277041457 -70.17452141351669 946.4748262629507 217.34680663267704 -1044.4443795211102 -1217.8071986218429 -264.63847212690797 2.1777072114942486 -0.060308913489288164 -0.11074007814601873 -0.5466930076525084 0.2543097166866774 -2.0537192811529685 -241.2430202212818 -597.4369789378917 -925.101193579591 -1281.6157004217703 -214.23964382535928 707.5996522532682 580.5843018738099 -563.1624268871371 697.518217026603 1662.18079450566 1813.2617695415938 1332.0010686496444 1166.2298749648744 1545.4082750248003 716.6826352049397 -889.7421944374671 -420.07783783900913 -232.82144275005362 -342.3918387293953 -354.3337670196031 -1112.4804870927574 -412.4163554789096 -196.65282493610457 -0.8447624021519583 211.9422719741682 -0.42418220103656695 0.25503864885766936 0.379140309856987 -783.8569429093205 -908.53820019234 -969.9121409873571 -895.7855159035798 505.98377280698605 1193.8919018038487 -81.38845452052192 -1662.0297140595349 -135.6575090583774 -296.0100448980061 1094.6605977695444 1545.3318666182654 2566.0886399914953 1846.3128197688152 1425.1169580837964 568.8058840340846 784.4241426846588 148.13685935093736 -549.7484907828391 56.49148661469883 -1047.8233374677495 -474.8917781360865 -236.126803049955 0.22619802964901112 1.0483100763727744 -1.3389140697093724 0.40476979113022227 0.10823627495427118 -377.9923531697119 -679.0610568133998 -163.26459602461262 541.9115075004338 497.53573874444714 619.5394887025614 -1.1082725345320341 -365.0820392369503 149.00826155578534 -119.28612604883074 1257.8152723049575 2467.378563469947 2348.9915823894457 1112.6439239759409 1084.1288558917752 1922.0149048993253 2306.342418213277 -657.6524319195951 80.74862313056235 618.702807921785 -851.7807072669364 -520.8652993250086 -111.8967549359353 0.7346570519519822 -0.8388007255782597 0.6750745413454704 0.9527859329025246 -4.789397601429293 -90.6573629755294 -758.4669385754053 -198.00081054230236 -113.86671966690585 833.208439466272 760.4000454887744 149.132832308616 260.33937007409736 832.3540596658929 2833.5293333504596 3207.195923107037 1440.3331613312166 1534.548420014156 2592.9731168130334 2403.8014322150557 1505.0370993175009 1439.6290170048817 70.20960073658671 1626.377590925154 1403.2084252729233 -976.5979726751625 -836.1719480131999 -1.4148844595627985 -1.2741395656368637 0.050778732039934694 -0.45205579739538787 1.087822096755923 386.84955911240326 212.73694967919187 -1204.2512348142898 -373.08025328421354 171.5542048083247 992.140002309304 -474.3080303465558 -382.7248408280818 852.2623538196779 -361.649245205047 1653.5057935297864 2058.6567259704802 1437.5740756690766 1268.207377197441 1091.124145225466 375.86452090611203 545.3418865405124 1186.528611902299 1050.7042348875375 3007.186876259814 2509.8407202347303 746.4024394655266 -356.31631241326363 -1.8556799955901022 0.05810879306210987 -0.41427234298856513 0.36224951073297784 1.5635930445897055 352.3019557813024 -435.1673725435884 -1657.7908486532785 -9.938590101104182 -257.75964459599527 -424.0126264987755 195.08655969874735 362.64943359658105 1137.6070353955483 -538.8491704369947 -417.17427196357903 -969.6422437300221 -848.9873312902314 29.045315619381427 -450.29524323426403 -432.2786550174658 -670.7267375271394 554.0823326888769 438.96183296421987 2328.278348707834 2529.2324262004468 1204.7136805030523 -470.31160885843894 -285.31153465745524 0.9773997583506858 0.6753449827303767 2.120413838946228 47.84702924642947 292.6680137511412 -999.4962893979225 -1286.623526406374 355.0754851460533 -325.26907408468605 -584.0571374419972 1514.3728972122794 -1305.726488408328 -266.56182450224924 -198.83967658129086 -1352.4118733757753 -3470.524471151842 -2526.2486579260385 -3042.546939994698 -2831.8803236172266 -722.4983427252728 -538.677637390048 -1925.5298708661558 1259.5095594698093 2324.0088443767545 1532.5584463416726 1012.3887580728358 -754.0179218801056 -606.4501390957907 -2.2416609233468408 -0.7985047203329009 0.782621436090984 0.10505365301029136 -160.3086605021474 -2007.346424290432 -712.9770261361207 959.5814752932877 277.03812982794057 -997.1762770966425 -940.5301415015595 -1457.5174931243334 -1203.5543045625527 -887.6836517878282 31.349748953389962 -3870.58187178113 -3963.4951419690183 -5646.499115839373 -2481.726992217954 1030.193006248695 -1089.6085276051479 404.4225656220192 2398.403014444597 2057.6853050817263 486.39555006839805 1371.8801095035876 -237.19739146469982 -51.975212083079406 -1.3746820787787282 2.133660830967009 -0.2732764736684243 0.08797032494309608 -157.16922936021135 -1850.1994038584646 -55.56916758489842 -109.68547407788196 -452.98710016564496 -1865.0091904538563 -1956.0941672920417 -965.4020450538262 -733.5065726558933 -855.7671311273807 -1864.3910205738966 -4770.170698695874 -4520.313993993417 -4896.960923269238 -2336.3595815389035 -524.3409665354247 -367.4510498387831 404.31029979861273 777.9130470822502 858.8597678900428 821.7632279094732 1850.097386463708 177.53125899821356 -252.7062756712749 -1.2843483886928495 0.31576824830336536 -0.14357143808368958 -0.1937557298615953 -69.53929974646745 -1289.781090353334 645.9322612941914 86.9252648278707 -1012.353176212333 -830.4053330446629 -1501.061169654803 -248.91259339524004 267.6160392183815 -1408.2376831611123 -2654.6334482035545 -2145.68408547751 -3143.9693269969534 -3775.0367577516326 -2456.635376808709 -1507.3438890224984 339.67762084918684 -567.5905179028687 -788.8044519912744 423.82904965959506 1901.869518033805 1152.504050559003 -216.71724077635918 -252.81472114973255 37.55298958116815 -0.8968454757198043 -0.6068000952861432 -0.14418535214227168 -115.58532971466673 -235.43996304134168 75.60251621248199 -577.9756668001583 405.6668293235301 -452.7611554364539 -209.84760967915543 999.1368924304534 1126.8702597771426 -240.52739949922284 -1952.1122339220592 -1146.8486442642434 -1897.9444126077842 -1415.467805085501 -1805.578108901022 -2095.7004841299918 -1029.8920177537918 -885.8087416666185 -1009.0835918433856 170.30055302377014 372.10272980506784 76.43328521271599 -150.5409166040168 -90.88238959907393 312.7354246082665 0.5441771000880039 1.2079629067749709 -1.4190514685754012 -339.23343588629103 938.8713539856111 -524.2314600640836 -1061.263992028778 235.50143957353612 2039.3050436374606 768.0062177298512 431.26562869960435 -332.0038610020986 -1805.2527732377985 -1953.7020982304402 -2321.473617317817 -2310.068153463144 -1837.600002247309 -358.7996696899701 -2164.958591665518 -1606.3844266354567 -1943.7887313463052 -1824.0998134319211 -461.1256921145082 -570.2888662848064 -246.8836110667367 0.019996771936775178 -0.0578061477906253 0.43103315652130947 0.29096634465293325 0.9530301727355955 0.38576450805012646 -1015.7404992979561 1009.4763094032307 460.7208306394173 950.0524062425579 1285.1076990433803 2230.5331705698504 1679.2742113220434 1292.7859402558238 -453.26059968488676 -368.57728616626173 -257.2089256755248 -935.0320268770297 -1632.6247979930902 -1592.596605223532 -223.03773733858714 -1078.2485929052812 -1016.151121442891 -695.8359304575781 -1471.3918191530454 -724.0063362683502 -916.1327060065239 -136.41851107998832 1.465419032805781 0.7020607823381266 -0.6970386048717974 -0.04553133958512939 -0.11055364754652514 1.6755411822568649 -556.1077142014803 194.21799114521798 1662.6258493476075 1362.6611747253942 1922.2063130405063 1489.1260839524641 1936.7265103438895 1819.4604039665464 2106.1346087645393 1698.032386458919 1376.7983197796184 -1642.727369134318 -1797.1151275057969 -933.0372893770766 743.7207671040233 728.7454598750237 -531.2390536971482 -1177.9701934690163 -1546.2013908384781 -1954.4714207272427 -1179.1064411706534 -268.368685995653 -1.2558126140265735 -0.765472753037384 -1.2875083348413416 -0.29459559125108953 0.3626398822586568 -0.7029054781168084 -227.66338855087045 -210.34169686348605 1104.5604139141049 2134.621887663813 2430.6887596046645 1279.5536127126234 2764.9566790126937 2782.9564472616794 1583.8515573891818 2118.095058937386 1661.2617352444886 -140.02459368354948 -352.4525618994812 1172.0294200496535 714.772454616985 665.5634591875493 -790.7072118236911 -2160.0742528075016 -2533.230460135821 -2233.4201857384796 -952.727532012605 -281.5677995435825 0.7418968363702794 389.1767588366222 1.1783002658191168 -1.5201631382165266 -0.9635349851718044 1.65994587048249 0.6496344190438635 363.6645189202302 816.3186161955624 1795.7905039519278 2252.448659825416 2676.1117616636884 3157.583393354509 2007.8397794790417 2143.4292914068146 3743.5088642511582 2432.9552083148637 1649.8253058634023 1988.4429459068224 1389.4317504777503 381.7924245460082 -209.29862829937088 -1312.9191032086133 -2357.1729738476834 -2507.8903684636107 -1708.6077716978505 -744.1539423038304 -270.353720758378 0.7118447454169425 41.74125423115311 0.5242617164396093 0.6645625544180859 -1.665801385830679 -0.9186905639960959 -1.3630604725509639 188.83958727447387 550.7997493572774 494.3309430835461 -215.59750108484138 -782.9135862944418 -45.860726662459456 -76.07439741405165 -412.1158418230184 1349.6682149080318 1865.476372537556 1875.6234106684133 425.65207336153185 -1249.8951952642033 61.272880586485826 -377.7247245749676 -1063.335580593458 -1722.047664515091 -1119.604979250954 -161.31871197218373 -64.90200908177353 -99.44899531537735 -0.8830154435142704 -0.0011851274429793227 0.7415210268358214 0.07888436326144493 0.4315081648165703 -0.07506550355008258 -0.6515606524844764 191.25055564286603 -36.911002756582576 -741.3301831269339 -1376.081825022693 -2083.425626911283 -2021.4575344194182 -1159.1141267064777 -3051.39998458413 -1809.4510211132956 -73.99437808742368 323.61642725317324 404.185289395475 -379.9182556939818 48.36522209882662 -333.7400109192197 -678.7843462668736 -263.6328792318486 -127.67990219205475 -31.99016185016916 -0.2947338338170154 0.7014920878187829 -1.4521339736115992 -1.645165308097905 -0.6320007126350159 0.5238776142137623 0.95590414918192 0.19962182871354797 -1.1758542629604811 -200.94301980655962 -776.7343766858613 -622.9352168887152 -419.87719881439887 -561.6812847770457 -1279.6079867076078 -1116.6931717460993 -1065.668245328825 -1007.4079298300604 -950.746086378564 -511.88519765212396 -587.3376618700842 -286.0122776837484 -2.3751027611269038 0.2438987929498091 -0.22775932800078966 -0.26669765191402184 0.051660420582707166 0.08683579545086349 2.046890371290341 -0.2929461517234379 0.08081024167747572 -0.36081255841781534 -1.532988574871822 -2.5178020859127117 -0.5398966114544953 -0.9360161032041409 -0.26953338882229405 -205.62185583633345 -758.3912562281381 -733.9668455692288 -156.16458139288727 -106.33742470017688 -252.592591422557 -153.86853687130835 0.6625203594787733 -0.10973827561463402 0.8302133553369108 -0.5865627564459771 0.034285428196940575 0.3549174173614405 -1.3510529484972962 -0.34024571566677936 1.2218849345716774 -0.29492104602591335 -0.060365273494077075 0.46771854842581034 1.2853060219910848 1.21589960786102 0.3954176017843978 -0.9423966148595615 -0.025512306993398366 -0.26550735188898505 -0.9058723692844391 0.5245179153093686 1.3838216634452816 -0.46771640304824236 0.29534414286984784 1.2507522905088289 -1.0720279263948305 -0.5623233096385912 -0.12063897938752864 0.692194827568479 0.32373757836989014 2.191704441509529 1.9156817151524845 0.615338183591658 0.1552629818526435 -0.46929890037171806 0.25897660332209954 0.20848170828930207 -0.22529341265219202 -1.6518566305423288 0.12372083272499357 -1.3681583257048469 1.1006451414242024 0.3345141923484986 0.48928580232708196 -0.08096989557434842 -1.7184468238450608 
0:::5
0.8585350788417604 -0.011717830760173069 -0.025922485750925893 0.4489396531072997 -0.5416424775870001 -0.6069564157729368 0.22663557153608743 -0.6589400463653258 -0.08229571620857441 -0.45173997067481636 -1.8624144945532264 0.0323902520081764 -0.479792931083498 1.3655531353954915 -0.23112010365408353 -0.49764196215628753 -0.9490137791311417 -0.02212674538721185 -0.1990326373468424 0.0070012573533756025 -1.0367634102298364 -1.7486518867817404 -1.365401388458332 0.6698464307137717 1.0537612574121098 -0.29861476165931755 -1.7208690182570305 -1.1056712915991236 0.6995417823546648 0.8052292561828133 -0.24736600826698257 -0.332200307635125 0.1801092676796668 0.33061364426111334 -0.4277250151331049 0.07005651607562892 -0.615905940049882 -0.1778494217391292 0.3765125659520183 128.07101755926658 252.31232272298135 105.4222830375199 1.9314589918944118 179.02777270914308 493.0046759619362 234.37987201439958 1.5462590802912408 0.44643985311743756 0.8525747342992013 -1.6506015456788712 -0.9492882700543367 0.8559155163786579 0.12591766858739245 1.2502498452134587 0.4290114855367095 0.2553683647196987 -1.6847931735747894 -2.525690136315989 -0.288595697929574 -1.3860526124463024 -0.49151469751700844 -0.1718764992319064 0.7012565767108463 1.2021086671120365 -0.371428897539109 1.7136304594063905 0.2901987134283316 92.54599606505101 230.90370988711896 98.1319296226139 -37.16080292441806 -182.68619357994086 -285.9995017073068 -1321.7744194927918 -1203.9447576711923 -285.64989753995843 -0.6968361535861681 -0.6799574206599357 -0.39929773077020925 -0.816080214771607 0.7289158695996572 -0.12224766379323478 0.7255331042034844 0.38174104935669706 0.3616815992774646 0.10565232175383159 0.18606904088244205 -5.14924220486552 -58.03051024648762 -1.6530373005376304 0.45794034098948017 0.05368068529253459 189.05978560377773 -318.57794499859364 -275.7536707404696 600.7228471110695 530.9773076018281 806.9419154263201 -104.5591805009035 -785.6956982770128 -1462.6893106821656 -2136.065535878825 -2744.880728297595 -2722.28753086454 -1798.1946884600038 -2165.2451577972415 -1816.0477777335907 -1201.490349788428 -735.5896413387404 -189.50449711078224 -46.05285094128906 -0.1462504146754125 0.7736739158604305 1.1066842700345527 -0.2967739238948385 -6.188101585411897 -0.3744963568056193 -0.9577435911375266 20.289392313435272 50.23817398485167 420.6691608478136 -98.82862235179755 -110.58927876015684 -246.83336727569804 670.3987974836218 2314.764956633833 -707.549120747509 -225.33171247005953 -1584.8137638416542 -482.35631374371997 -3149.096324068708 -1857.4488796998617 -798.7453119724419 -1310.1546637266686 -1381.1615343840322 -1929.6911143209277 -2340.9677816323892 -429.4497447715554 -14.956407965763338 0.16493233235881918 0.14533013897431576 -0.34311365911263986 1.102665823195154 -52.5983020822231 -0.6560822090709939 56.72251870008759 -540.4017954241605 -570.4938669961041 -235.92113720664952 -432.2689301535104 1105.6057981316394 -559.4501450130031 -2138.088250759333 -1010.0082599514576 897.6960387235213 771.1273879093233 -559.3744881028852 748.3627713518945 813.8230020057658 -205.75266738361506 -1270.3570041231915 -1906.823693069487 -1870.6546923374299 -2645.6780533844512 -3713.2405674982256 -1634.9519660938377 -159.56035340476848 -82.13931300502462 1.0450159085501485 0.7226891307491066 0.4323590706177319 -1.9724710163494454 -17.032140639486848 257.95206725182294 94.97108597735792 -1381.6472430986487 -2589.5862802492284 -2380.5319642685627 -1116.99589454447 802.1993673856214 -3502.5454360498834 1060.281111833528 1566.7807231038419 -980.0335694609519 1273.2318052867736 575.5381614771477 748.514822611553 620.7501808172663 1321.600155668778 1422.1165297288965 246.25112432572018 -2790.8774462681095 -5431.001430270183 -2898.5827325873215 -1151.8971532041198 -312.8819780003477 -0.5310153517916993 -1.4560342389497467 0.6980919292045447 0.5001380689673717 -0.45799202704396985 531.2688037307944 633.6013697944039 -1146.09503662943 -2839.7765589558844 -1366.9602829782425 -947.8324100884811 1651.537389509786 518.4720453334226 1372.2473105008849 1029.6145782757749 179.62659762749308 59.53804479959945 321.709278094419 1879.8593375482783 481.5610133616392 -1492.2272796985308 349.87724474740025 407.03926935813115 -2234.3475859752125 -3972.227759409415 -3628.6787176371427 -1544.329646064323 0.15551675860853967 0.9573019164872011 -1.2708714243017034 0.6856137301373338 0.659294265219152 1.2898638370360591 -887.2448634027736 -285.88123237041157 -522.2475829144364 -1090.685022903751 -1683.3990517123461 -1236.446267666709 -439.75274791636366 751.8075540933919 143.17479160296307 1559.6093645249566 932.4337251114025 2183.805034418777 2740.615379255805 1379.0114467917379 -454.7534382143642 -115.33183166947492 574.1401869045958 1544.29500097237 -1652.0011558110698 -5204.815112598155 -4933.557663191639 -1841.442083355511 -2.600115322944154 -0.7952841285160633 -0.27199792130431016 109.10325420645444 24.76886742540612 60.66615908317677 -950.9942318631593 -428.55175997916933 -2432.151283413222 -994.935224695234 -1371.4942787170176 -1328.9128074948326 -3358.329169539422 -1366.806067257291 1822.5842021353328 -1283.8333535594243 -1607.5302516105953 559.8958368315434 -1090.1767264513915 505.55398249433983 2681.7306215706303 2223.1849665366453 105.85064509853055 -499.1886201058287 -121.7295470428503 -3724.7433475648386 -5087.722300933911 -1974.0801748967813 0.1118494253582768 -1.1957805903826297 0.8758791623158096 555.3766981519071 507.1984361977323 506.45476182605125 -225.1171811666619 -657.1892140809605 -80.35009410772227 -657.4762541084806 -1197.6771194126145 -1861.3491213873112 -416.8092781861046 -1035.361813249567 -407.2011800001758 -1120.588234827892 -2692.4589555328184 172.14180619218791 3543.5266430576744 1097.4033380835522 2393.6527805627293 1263.7652419715378 -266.64218051488797 2492.9088932124605 2001.9998714073863 -2950.1849634224845 -6178.403402287334 -2917.9994074334854 -91.21754865244098 0.9546463984747539 0.7757566245826987 -0.25096422679615266 66.47106769935797 -558.4297631044524 -958.0629021274918 -2084.314853253822 399.3482571015752 602.5261882468076 262.10565631268537 -845.1107632534704 -507.3998511478094 -2751.629885952372 145.67472828819245 -2078.7710619574723 -5515.55745908975 -2408.0392041503283 366.83995081084504 -776.2525211825887 1511.5897619339949 671.8727072911456 1832.4384034170475 2554.9654738352256 2592.342370060698 181.9557916978781 -3203.7155546972435 -1807.0603375774017 -110.89655001065844 -1.8320569394815187 -0.13161616403668341 1.6192310026048076 -180.20117303925215 -478.1590819651626 -13.056387538534068 -203.32211603587302 -1426.9383029087721 33.566831792274115 1386.8501860754627 -1625.4834542776916 44.521778442632694 -1155.8356472832706 -702.9089752288669 -1952.1342988532251 -5953.609383513915 -2380.203889478723 -2246.6584641122413 -1762.9341236971122 617.2312236085663 1938.4378488030252 3252.058855592224 4654.809571624493 5896.555654600084 7113.1348908168 1324.2666831374097 -155.58983297869273 1.040398769654007 -1.1578162418517437 -0.9342006637666972 0.27910847780139275 -401.283170324676 -288.6383964761626 1509.3965951810128 1381.6937213711205 -1953.1267748621167 445.5890331345254 -516.2855746028181 -673.7904432350601 -1632.4354672998243 -3040.7352626906777 -4411.159246236915 -2448.7067852929054 -3897.010465242529 -3227.214214448556 -162.6072777353536 896.953751124895 421.2407226900582 -813.6223766774328 3062.3689796519748 5801.093997325541 6879.989474372273 7012.498043042979 2160.7402666876196 -143.44467315193538 0.09819979400777261 0.6695290271772064 0.9967471763471314 0.7499765211097246 -1070.1658280032882 -1210.0937615824582 2246.743236268606 1483.5271022664283 1120.0614168545724 401.6551785667041 -269.5878233204867 420.42108433490307 -298.2981504600416 -685.8107189677089 -4252.555328835162 -3848.162472566127 -2754.049272197492 -3654.454640446887 2534.3772894063395 741.1677096575054 1628.334365531402 2282.0243902592224 3934.48102727674 3583.2051900678066 3717.629038342191 3429.862258713384 1940.7029706256371 1.0774653545560546 -1.1857400834423548 -0.18972052405727058 -0.3481161529852599 -0.22202362604859827 -1329.9470589901853 -2021.590406205984 1440.5198295142975 2163.1076612004263 1187.3190987661783 -164.14696578920052 716.1616529622761 630.0584576745932 -1260.886212069453 54.70665323412868 -4163.948994945192 -5131.248065470683 -946.859970379764 -36.39737407029179 2894.9753763165545 1657.488991457767 657.6738350249711 4868.820418206464 197.88395116158244 2809.370443667186 1508.0111735747696 862.0653270130385 387.29221247849136 0.04441000753477824 0.6230711681795849 0.9920306037598677 -0.07004540898162148 -1.5798159294345056 -1082.6315329999702 965.649269220866 1936.5750982026257 2369.304618707947 4073.191476505158 1353.0750724554919 3328.4806648164918 2681.5735066917796 956.750669395064 125.51546588122392 -4712.897446488172 -1992.2292682793359 422.1219958467864 -214.79514559939162 1704.2869480672462 721.0013889401548 2901.1316115040104 2112.4124810447915 -50.52698397553036 1403.552337421881 -688.4838228011854 -575.9788126212802 -220.55774760781742 -0.013514600315007931 24.73705523311444 -1.008999423958951 -0.7014980166557304 -1.851067618086175 -399.4360100284484 2012.7929371215516 677.7777059090479 -1001.7780243251068 2302.751565380102 -712.9862916083421 2085.076082323118 2476.757017493899 1250.8536781941239 3297.1285411196395 -2874.8266641767063 26.063353552246554 1542.3117739932304 131.29449525860082 -365.7219554536214 -329.39869892581373 370.3858696918835 862.7730038155892 -649.1051627783245 1357.7445491866729 -2057.4839732032206 -1456.7441304602212 -294.1823628169774 -1.059970827363621 208.31155273199255 0.7622235820210753 0.011448221376144574 1.9915224268802665 -848.5845421538645 122.28715841155179 -401.3964288063539 -1685.338678066495 977.0686044152703 1995.4531195692857 1543.8085055687216 793.5081917697839 1225.1748718396148 492.72760909452336 -2889.9851828581795 -1791.1465290611145 -166.48877078550458 -225.8379484884265 223.89042753130457 1564.5136976179183 -691.1752898391892 -1754.5591859257124 808.1348893614795 510.10194119344806 -1924.7123486853448 -1080.5847870438477 -558.1414385971971 -0.26432727542473977 1.1822698665889089 -2.4029392868639214 -1.073377652827048 -268.05541837153623 -2072.495953017722 -1175.538520358602 -244.63022297461157 -429.88462252885756 -104.51306240575536 1800.2639843331203 1493.6917089414624 1625.3991558479815 1302.261807149484 -155.74403645977532 -3417.030429522596 -2057.7175928505885 -1917.0548300130495 -1870.4205476470875 626.2026514889149 -1903.9959133489883 -83.72078578887363 -2054.0572479703787 1910.517905719592 166.12278033025405 -1567.9732142846483 -1117.2364989491898 -724.1883969940918 0.02222440579091541 0.7745017057326049 1.2850390620857577 -2.0852036006502446 -259.064639655572 -1991.0487556335606 -1539.2326537218373 -1525.2210609386602 -166.94968255147637 818.3180794153513 788.4257228157123 -2143.7127332014506 1200.303148716289 2170.052553113078 2982.4508281464487 -350.08399899039136 -1907.129498614051 -1578.4268874245413 -1256.0214427145347 -2161.4632047427576 -1358.9409908598204 349.90666090119703 657.1009672492896 -103.70321205159848 24.640544311719168 -1217.832960235134 -917.7732524914143 -842.9173541713742 144.443222729054 1.8900364355516275 -0.7276819698780042 -0.3342790317127774 -6.388822507194024 -480.1045567395315 -55.06684828131779 -165.08352717545154 1176.0022906515478 -93.07748862291214 409.72699381857956 -110.0591771533168 171.17094693491117 752.0862322689532 571.398092393787 -594.7451156598245 -550.5627103142226 -786.3378146157695 328.0818814499894 -1311.1526941359043 1012.3368025937896 -1578.82728438119 -1418.6166662432333 -1661.0050468742788 -570.3379098050094 -162.85533237207346 -1103.902929897015 -1132.953757594425 233.52450599974247 0.9660756811885259 1.7524520851013068 -0.36113757366616817 0.8714310783786471 -583.1086470056067 310.81813677367336 2339.9365567182576 2281.6484623192023 -93.21085898831666 957.4968427850044 -813.698198921003 -119.26052501380263 -595.6256383720108 -429.97621853140095 235.21553385315883 1605.553676169227 292.18001996099474 -2474.1310161987185 -909.8924777945508 -2379.606466084507 -1293.8622940153787 -2271.0278094694163 -1548.8627297746557 324.8465470359893 -492.6463927960922 -1258.4555280770967 -1207.4360315146694 43.98741685705028 0.5470602910454799 -1.3213254735826245 0.2627024215019005 -1.1476777575858041 -502.18291702494315 -1332.93072247491 -249.41945865809396 265.4066071597356 -50.67538567408553 97.04362712265174 362.02975182679575 -43.097913998569766 1026.4800464641771 956.6910832381814 3362.5677515548314 2536.065992487429 -584.7711582572138 -342.3518484658773 -281.1999528078977 -1340.187793209563 -2711.191894980272 -1884.5622435635507 -762.5243652823153 -185.18894981726356 -983.8226495973006 -1090.1078249709822 -933.0358866190553 -56.92037507899901 0.039985014746290404 0.04102078554509755 1.6646038647751062 0.9747033062399646 -1.6711402815291008 -396.6419000280797 -1087.4882954256057 -2349.6175125618747 -3432.2952263658017 -2088.108215577159 -951.1729676084769 -2289.3771891734004 -2950.857179414134 1244.988512342059 763.229135928498 1515.9529334895142 1459.8748409222371 1344.1736365349539 198.35513063760823 -526.0762683569912 -1465.4467338360782 -1242.9165340021427 -545.9978291436787 -151.19679501622656 -0.28335897455724535 -0.052002551434551514 -0.706682477970194 0.22766995516878957 -0.33066127717304983 1.0337498964745269 -0.9560203535355261 -0.16881415104075287 -0.056126460429261886 -1.7485739167061822 -0.9509683838434588 -169.3137460412494 -641.0780080155973 -411.5219522637391 -1538.8306436662149 -1729.4698647584114 -1982.9305797189722 -1869.9577068320577 -1839.953309884543 -1354.5745699649785 -1250.3454459931293 -1214.9809351588392 -1904.4099334488005 -1434.9844792614429 -1020.9412735857795 -318.38264994328085 -75.56557191534067 0.5758116054600475 0.6388259244500387 0.30854021856879726 0.13355936696538645 -1.277930819502594 2.0359936327751886 -0.815937437740888 -0.9538687239944043 0.993217141185755 0.15810320296549704 0.20285980820399843 -0.05054705174121557 -3.42890864238769 -0.08103788624308784 -38.7389152720415 -397.8504304627803 -322.62277999778155 -322.8537014028509 -223.39019601904997 -197.15304321409022 -218.88218683448613 -258.072459992987 -242.78695951577592 -779.3208260290955 -381.05478734925146 -252.74199576983116 -189.02627958343197 -15.312080291405394 0.2952387603851693 0.25098615853872436 -0.11468463493533755 0.008225822657362152 1.1203996924523338 0.501133776400548 0.48150062580970376 -0.1747872837367405 -0.6358199534447532 0.6176200628251314 0.30616092592497307 0.5508288542717092 1.3438022675543644 1.5563423506946326 0.27775733470242625 -0.49750949394735444 -1.5848168588955924 0.5123028496376147 0.5963930762815617 0.6328126469375546 1.2122998021935631 0.8310530299137014 -0.8132800571500779 1.0095261823382597 0.7408047613539799 -0.08890713905587001 -0.6712010352551427 0.24562418072875936 1.1632722739046013 -0.6272254380753175 -0.31804560579317914 0.3184481533736682 0.06100740524380583 -1.9014287377443295 
0:::6
-0.47819767124659224 0.14197825637610187 0.3436041471748061 -0.6128321636339019 1.2083566702271071 1.0086255695554192 -2.780928282705636 0.42621305615905614 -0.5874921192308946 -1.4754452797234374 1.2783464403600526 -0.535240465367836 -1.0299478655738223 -0.014344275193673216 0.19897967850874676 0.5701196814197299 -0.5591556621270195 -0.09473637924472332 0.4842407287018324 -0.7024066379317276 0.6944848949555433 -0.2899918330671559 1.049811942458891 -0.058890027254716225 -1.2284115762107646 -0.47402607568203103 -0.3801571064552253 1.5645266600315875 0.13109232388147188 -1.0662230100692718 -0.7647569933424411 1.062573068482808 -0.02760890927602641 -0.7872744517593135 -1.9734717391589607 0.08750203696311808 -0.5091229757917751 -0.135754854428105 -19.510262035936563 66.77735969755051 398.47111742207335 117.40406213684572 -225.40262393608737 -37.766325878624656 0.862133804069943 -1.062092031693618 1.3259796529736665 -0.36903962359912745 -0.20779724771461924 -1.2161050040275434 -0.11700564657781483 0.7362744021714003 0.43536954700169844 0.7991858890054504 -0.18690578758590567 0.8419770940092485 0.04486250468873566 0.026418263162513247 0.9725487076027722 -0.06105879614516525 0.3808857699083788 -1.2109686538423252 -452.95928712832637 -505.4144184663512 -308.6077670139524 -503.9727281433029 -677.4160331120358 -1578.735026319402 -1831.7723557380161 -1465.0996763019396 -1392.7528894202537 -974.2570674975634 -834.501719863725 -1215.4389918576608 -1442.6213832254007 -445.1026666628761 -390.7929465104411 -126.69319136424568 -0.05518396762417461 0.27079405062089584 0.30747930273602164 -1.204811722887038 1.260575928823582 -1.450274505872168 -2.6957408811045247 0.021587524917285113 -0.5900197479780603 -0.07411803783945804 1.283315047580522 -141.43651064577077 -890.2204228322764 -1076.0768532174272 -1367.4063501312874 -1518.0644404274024 -3223.7351093257116 -3133.2391021781777 -2826.191326826434 -2490.60673043242 -2337.9457433581297 -1713.736370213558 -1349.6036457335467 -483.8461200756856 -799.8636524148994 -754.2531033453627 -1188.2962303588772 -1338.6993831310465 -909.1668985505285 -784.2369484307457 -204.75612652072073 -26.744818392228208 0.2519061669628378 -0.7195626583212845 -0.2084122651393322 -0.9966356870246846 -0.037289672387349405 -0.9645376812145879 -36.93485382111247 -757.188514737788 -1277.618035933819 -1552.8631534525389 -1799.3362641142567 -1538.300881107957 -1583.7773426904307 782.3076376850101 -542.5252126020403 -1442.5436314844515 -1106.557221220305 1487.3562984600867 1441.9198740258412 2601.815733766495 247.09911602510692 149.6134250200596 -1189.5716200300353 -2538.7209655386514 -2160.146462317637 -2345.453533010106 -753.6670171043797 -146.67078423392132 -126.37904566575762 -126.71485639839486 0.687090920976639 0.13849838522060712 -1.0589716718033675 3.224680639397701 -361.908723057852 -1324.7210385281746 -1479.8903212087016 -1888.4299312983367 -1013.800826833397 -441.6116075686657 152.72374248981077 1295.345499581988 1910.463813781866 689.5710743516447 1316.1100008947665 3232.203346364785 1360.5196831604237 129.895816058631 399.20198681851184 -939.2737608486968 -186.5320536702875 -657.9013280332433 -451.96199845148203 -1674.5497948299599 -1991.1919697216917 -684.3365505616096 -423.1192709828073 -185.7656387279425 -0.4088434931433817 0.05670643866962539 -0.22928817294416048 -0.20446925338189428 -469.4601626064285 -1430.1251494346452 -1432.068129746276 -938.8480029356263 -866.5931994805794 -1916.6712874143095 -124.4339299874074 1887.075216109899 -376.79108947621444 1083.6863779637888 1318.7272290509677 -399.65021998140674 1322.1795811245554 3289.1742113115106 3419.719560625926 895.7900505024095 312.05585849984254 3930.5588645168154 2165.504037496914 -174.3313464860447 -1668.434363678814 -435.1818528358301 -0.12638294239337128 0.4204921633696336 -0.09290225104959955 0.3788752282665838 0.1819516785961438 1.1457169601874053 -482.46536167467883 -1395.5946680656625 -1203.3555816996636 255.2150241227431 -439.27239080035906 49.61410299739828 9.566454375458079 251.24279043272645 1361.7372265370286 1684.894544735364 -1671.920531533301 1243.3828096905786 2409.995054472095 4070.1145106771146 3649.8286744135844 2211.432876876638 1245.4092468618724 3938.303354386453 3568.5878613251025 3244.6143811882475 949.4977792628101 70.4119904516238 -0.9954397887804881 0.6047793744747895 0.7350067376842198 0.3461919374991967 0.9958192359416304 -1.574313625729904 -477.3999629589139 -1289.2863268626497 -688.5944520659095 520.9449388788629 -488.6164501974911 259.14157383286374 838.0878821501108 -116.49795639068304 954.5978801274232 1257.6768147766832 2084.2471072332296 3941.13802393933 5290.178541138728 6868.1495651292535 5298.438695414907 4929.756868994096 3406.494036582035 3207.8999916477287 4197.514798294537 4034.2476656522285 2706.248503958348 318.7593585941921 -1.655137461592641 1.3288743220992218 -1.4509776043018114 -3.131022538098009 52.946730308930185 -8.911945134197975 -458.3597613779252 -1078.291238993423 814.0690355352885 133.79402107872681 97.31555355111436 80.15027211815277 1667.3959966990014 -605.4003226386815 -295.18356635795817 1195.7380775885395 3801.91073183201 3211.024432781753 5945.208355896768 6304.0408937173725 3080.602713027566 1792.905605497138 3432.4362752258867 1532.372898697422 2288.6495535425447 2835.435298610263 2027.481730552703 263.09289064194246 -0.6038243777115372 0.2573851811329854 -0.5808188505743476 -1.987680742612329 279.1168155679246 270.4071167441567 67.06471720062007 -238.88420436988486 936.2611683281025 -330.61110626271284 -446.68947354748036 1072.0684511121933 1528.0488292346993 2343.878020361315 11.38558190032927 551.2814587383136 1878.1363526869209 1676.630804855473 3305.395327693519 4366.26675429124 711.0311782699278 1019.1856639092694 1992.3193017361637 2704.7267840207924 3922.0983560097393 2447.3638225604723 528.1663301023855 -34.81356446771355 0.34664546450908285 0.3648630482937259 -1.3574762697003695 3.3381371105819655 0.02896945176241589 762.845609198766 345.44843895612837 -126.45485873623466 1139.163542839863 -757.4022678292483 822.848828450693 27.33570971423933 834.4066709283236 1516.5975793899488 -1669.0117023584526 -959.3103890382122 -744.8429535696357 -1242.9644735276247 -748.7114741129544 2818.950084052305 -504.53739427696314 1029.6487389952067 4609.2350905916965 1461.8288151622573 1261.9996829098927 1766.9364321866342 -766.9534579343368 -384.19741694000777 0.10696065991811801 -0.6081259079599155 -1.996847370987094 -0.20723763156315114 0.1847202360019093 765.0389072431569 387.52499896109066 580.4249237055533 14.811809343937057 235.21042498435872 -1045.6073373810777 -1025.7521476371617 -235.28936860385124 -1380.4130525272835 -294.9695720940513 -1665.9894180732726 -4035.7440784353576 -2838.7499017393043 -1136.5573374477954 1607.4764379090998 1435.9725755024324 2759.4222104625705 2093.185628074308 378.02168934887914 518.7372448976332 347.9740656852082 -560.1357223375455 -353.96681183432435 1.692147634695481 0.10303059870186743 0.35124623450559905 0.1037684144458849 1.095238452828995 676.6582139254799 752.1978323030164 -668.3218353724451 -917.1274995554701 1185.2753259493766 -2182.2882501346085 -2128.664607242275 -2016.894134036264 -1026.7022027928501 -259.83495701464426 -3318.6103883136157 -4413.617276614307 -3359.9140664768097 -1712.272365958528 2647.921236955348 1820.8449190008305 1289.9640865731758 1078.3660144354296 519.2625182502252 662.3540131675584 375.3539936326831 -277.47804148113846 -159.07016013305702 -0.18872729477582756 0.7430334872786531 -0.2189737344529101 0.38308914507666514 -0.6964734587183316 -0.8679466952345442 296.31637846807587 -808.863474962448 -867.8444350123589 1279.7334339775098 -2535.5570390453213 -546.5945461628066 -763.6286450352686 -1899.9626540839913 -1493.029964094303 -1956.9949069339382 -4705.527407103706 -3473.909013421044 -4055.5865962130147 -753.4175127663825 1848.8623641940749 1151.7972307426573 1548.237872641806 1184.1238466318962 453.6135146801298 1814.9929286972601 1041.3920555102286 -430.5838749902839 0.33510379009767827 -0.6871450387296181 1.011805963719962 0.9980293817500208 -0.31991485709735934 2.2697475654383004 414.85578680357025 -800.065562076998 -952.7855336074967 758.2636706125777 -970.3570293782741 1378.1148601656205 235.12625001008882 -2566.3275477869734 -1570.6905616246186 -3593.4059276583866 -4423.900713836821 -4618.362957435929 -2522.0256720939287 -1478.9490647387959 3820.5687012862363 1472.017488458067 1806.6232055755036 1097.401962234967 550.8932183395068 478.59091680385677 912.2075990131259 -534.3599564464989 -0.02214605985938147 -0.3294828045418625 -0.3174787450919321 -0.047683832546704746 -0.6710655069721547 0.26152188563709655 551.3925360748631 -306.9280264694287 -1471.321838897833 165.70196047595732 198.96156380529192 -1250.4367974670313 -16.27964769889695 -2156.2086271226863 -963.2240887080725 -2862.9649815729035 -3434.0702919801943 -2826.558626029215 -3024.526625933773 -651.5432783178201 1328.6355534131771 1115.881934025026 2291.8180959366387 571.6961766081135 -28.039240325320975 -680.1116777399722 -309.6562500844243 -740.081628432986 -0.8904264224648852 36.007134164484796 -0.29084659703195176 1.0201352551985645 2.449391357843552 0.0917374455546304 982.4788625097021 -15.82161760380086 -1455.4274806734184 -245.85438513521058 -273.8685313605811 -860.3012663968179 -252.7071676100104 1009.2250063011811 1126.591752998178 -2282.3356959912608 -3870.465494904419 -4234.124049745133 -1465.69049051007 -611.117701085981 -3865.0706664496365 -1797.2710340300223 -261.88063081250584 773.1177075206328 -164.7399867538859 -786.8816162515296 84.1390166012551 -59.67047045586526 -0.21814583311460758 312.1465489302893 0.37117968905918786 -0.049904104681023236 -1.1294198234563986 0.3436788504025808 724.7599035131921 -420.02430724228384 -1660.9380838075108 -1589.0746136871985 11.77198340441646 -1149.719920072851 -1888.065137233546 1045.969163933963 -471.076968796149 -5324.324871314335 -3149.628960054849 230.47800519902376 -249.40796951461425 -1584.2385428703165 -553.3804420569691 -2450.986607130898 -409.34296656783636 -808.6426322634454 -851.7153696877858 -1026.6209291991506 -546.597211737008 118.13104155519022 -0.7754416731730381 1.6486106517425325 0.6827989661603974 1.3408882124120411 0.5100944374471198 1.3335142425042479 548.1391889728266 -214.41679768027916 -1359.675942700617 -164.2529162873759 -195.07179286274527 -1303.0050272901676 -2171.904043190704 -2427.366172142619 1152.8048570375986 -1475.2267736903216 1065.1750618475535 657.8045733871611 -1335.313582859233 -1844.4835068117657 924.037548753673 -2215.485990954724 -1928.1081048505584 -1504.2946787400306 -1041.4033841625742 -1009.6027911825263 -612.4962325064663 41.23490948325512 -0.7334605177528551 0.9832902583656551 -0.853212858921082 -0.10012421154978976 -0.8925183667344231 -0.5810642200144833 598.8379047671812 295.11000031447225 -450.71876402778685 -1872.3027135681573 -1156.783752633416 -2445.337419726515 -1307.507369817087 -45.46115083988843 550.9923513988679 386.12882528221326 -2150.147524349861 -3458.5100080050643 -2985.3961053783387 -2336.935682424115 -11.25985586918273 -2178.083520121041 -141.60394655739674 -668.0311877364065 -1348.040857660495 -363.65631626562447 46.660016514254735 2.2878425583261435 -0.9220962794345072 0.08446532256018402 -0.5070911120615542 0.6575859455402858 0.2597696455087321 0.09350940351113725 614.0317590840725 1448.1029754136016 2085.1326636727918 417.01461404412544 -2023.6889549543093 -2383.1901435691816 -2084.212079047982 -188.15559194961543 15.654488356160527 -885.0333658851041 -2052.013006421522 -1772.909065998028 -1162.4592721425515 -1428.2766886005484 -1300.121401979613 -1198.2544290834553 -1595.8779832604387 -1429.7197398303142 -249.79113915556286 -190.18608779606063 25.532709100586338 -0.2233077452897585 1.951513338807566 -0.5916684797305795 0.26160829721443263 0.17394924636449938 0.5888130548375077 1.2895202817892357 335.17279325208705 796.2503186287177 2709.706327922654 2407.0621824095397 777.5726030169571 1510.2052381113745 523.0747586697448 80.7133573070355 1887.3260705768691 1560.0700310094398 188.8905549319229 -210.59910124884527 -763.6259016346326 -1667.9543529595858 -470.66984200841966 -1057.8209503839275 -1982.4279169193069 -1671.9721751477243 -279.37294132337263 -60.04387583129281 -0.7683062796881188 0.9351082708736361 -1.637012734050245 0.7789905973751464 -0.4285934871622365 -1.0822333031691107 -0.35007444018348194 1.307043829535349 16.25191172053077 139.58243365061116 692.8525026153873 1872.4448606474232 1871.4599862072268 1428.7235078102415 3132.1997896261064 2779.9064122021014 2141.0362660577557 -141.45697433218538 -216.55726079379338 -769.3030212073625 -627.6222290831533 -61.3569490369066 -647.2367724043954 -1471.6537915844551 -1062.27542110882 -432.991273139462 -77.2592256943172 10.94487206883362 0.22320660740991294 -1.3083122731327488 -0.24280017937528459 0.592112771305662 -0.17679144121006987 -0.6681119760890145 0.25624339301108673 -0.40833668298644915 -0.8435752534971586 0.9918711783536934 -1.1547712252270175 1.1334126456775957 1.4425789715191935 -1.6598900366773466 171.17698065596272 -189.5415226593043 -317.78694911814785 -58.74213450645527 408.34161233574514 379.89770311021675 302.4187203987016 263.92901895931317 8.25683801372071 178.11287845744582 105.07126823258155 4.523023018140826 -1.3945631012175783 0.44488593342473803 -1.068971683989406 0.24614348874460962 -0.5500367303371304 -0.26457583728401973 0.16360740518151431 -0.2966786076584276 0.9338656963479558 -1.7533819200911078 1.6802641875357796 -0.6604697912364865 -1.472212122576452 0.13352962915352673 -1.3111002341007663 -1.0097096213810473 -0.2638455047378604 0.83748992993689 -1.19347698076652 0.5680483804223778 1.881422799104101 -0.08104868407068169 -0.6278514408644036 -0.4995476347189765 -0.8293832763773972 0.9181835340194068 1.545603379488848 -0.863605355354566 0.6415799652595918 0.13909664179134443 0.04256427430370495 0.03279293423976398 -0.5136496160628902 -1.6550310014283394 0.2932604859974715 0.8588962702726518 0.7340766038204722 1.56576292139261 0.4771822616318476 -1.3087006726612893 1.562775829604385 -0.3294160910140576 0.7281938058620808 1.4349198880755076 0.6847740301241353 -0.8789565447554665 -1.8648762076686494 1.4382699084642485 2.0242434297086644 -0.8708827770815142 0.7026960667284469 -0.4637298411964353 0.6280095461118967 -0.9681525104369935 0.016597721659546164 -0.2928460914696318 -0.5853656130314827 0.34659035381679054 -1.9157916724956803 -1.3041200668546356 -0.7951130264099037 1.6737713075838914 1.6467584285244699 -0.7147074522824228 0.01138813420415376 -0.04870230842355413 -1.8385852633888426 -1.2878720780888997 0.11681381934441874 0.5462352317842434 -0.012299672191062207 -0.6644398495220171 -0.015526510657036433 -0.01227638874987044 -0.23836682640246998 0.029043416070567714 1.7482698479948726 0.9449993504413858 0.9194864109066565 0.44103170851481666 -0.08993462221690834 1.3613559149847974 -0.6806781421040127 -0.012313256988863347 -0.7265277252737388 0.6652575411304305 0.11078410567367834 -0.6713513898490309 -2.586165857717522 -0.028840880679988995 
0:::7
